tree
version=v4
num_class=1
num_tree_per_iteration=1
label_index=0
max_feature_idx=28
objective=binary sigmoid:1
feature_names=rms ratio abs_max update_rows sats status pdop baseline_m spp_valid spp_sats spp_pdop candidate_vs_spp_m candidate_jump_m cluster_size_50cm rank_by_rms n_candidates_in_epoch dist_to_median_m cluster_size_25cm cluster_size_10cm max_cluster_size_50cm is_in_max_cluster_50cm n_clusters_50cm n_clusters_50cm_ge3 cluster_min_rms_50cm cluster_min_abs_max_50cm dist_to_max_cluster_centroid_m delta_pos_norm_m delta_pos_vs_median_m label
feature_infos=[0.0050000000000000001:46723.423075999999] [0:1.9807029626537516e+28] [0:177876.67722799999] [0:88] [2:45] [1:5] [0.78464999999999996:22.835334] [0:10263.377055000001] none [0:45] [0:999.89999999999998] [0:164.04763600000001] [0:inf] [1:84] [1:84] [1:84] [0:741.27972497500559] [1:84] [1:80] [1:84] [0:1] [1:57] [0:11] [0.0041999999999999997:46723.423075999999] [0:177876.67722799999] [0:741.27972497665098] [-1:1340.6408541058181] [-1:846.06520668333167] -1:98:83:97:149:94:148:134:138:146:84:95:136:142:91:90:89:143:87:101:86:145:139:140:141:132:135:147:150:133:144:93:85:100:99:15:16:43:41:137:92:65:57:42:44:22:107:102:50:103:120:26:46:88:29:27:110:116:2:36:25:152:6:70:61:78:118:39:128:122:126:7:76:31:5:75:96:158:20:12:82:13:23:119:34:4:21:117:72:67:156:113:124:155:3:30:63:115:47:66:114:153:59:160:38:69:60:1:111:10:109:125:0:81:73:127:77:74:45:32:108:48:68:11:54:64:129:18:8:154:9:130:62:131:121:40:19:159:51:52:24:53:104:105:123:28:71:55:37:79:112:33:17:80:49:56:151:157:35:106:58
tree_sizes=3434 3649 3692 3709 3492 3624 3709 3749 3720 3684 3728 3729 3529 3749 3727 3699 3700 3689 3650 3726 3777 3728 3623 3705 3640 3644 3708 3664 3672 3620 3670 3624 3673 3745 3647 3626 3656 3741 3633 3600 3693 3679 3706 3772 3626 3726 3767 3646 3805 3681 3698 3540 3730 3805 3542 3550 3727 3713 3657 3783 3816 3707 3741 3681 3727 3628 3722 3843 3772 3785 3747 3715 3760 3774 3703 3902 3546 3875 3727 3742 3723 3776 3793 3554 3706 3826 3553 3662 3793 3818 3732 3851 3798 3776 3737 3667 3726 3778 3768 3548 3631 3901 3896 3759 3891 3687 3758 3780 3725 3785 3778 3789 3603 3838 3750 3862 3691 3709 3857 3773 3584 3699 3514 3477 3691 3708 3750 3727 3783 3900 3895 3821 3531 3854 3551 3694 3625 3773 3719 3597 3628 3773 3783 3748 3743 3808 3652 3834 3616 3788 3534 3866 3822 3884 3661 3552 3481 3914 3825 3841 3745 3541 3794 3760 3625 3648 3705 3584 3836 3830 3685 3598 3723 3744 3510 3698 3907 3517 3838 3720 3593 3527 3507 3505 3678 3641 3684 3515 3629 3642 3547 3698 3694 3677 3765 3580 3849 3623 3695 3741

Tree=0
num_leaves=31
num_cat=0
split_feature=23 13 25 1 23 13 17 16 13 21 26 24 2 17 16 24 21 18 17 14 13 24 4 25 18 13 25 20 13 13
split_gain=1.70779e+06 131480 24889.4 11107.3 7614.08 6102.1 6008.51 6033.09 4072.9 3344.08 4945.82 2979.82 2901.9 2451.34 2334.98 1761 1742.01 1652.32 1548.16 1236.07 1267.67 1200.75 1018.4 981.458 991.341 894.302 891.066 848.348 837.285 815.355
threshold=0.050050000000000004 11.500000000000002 0.3114031762720158 0.90000000000000013 0.084250000000000005 39.500000000000007 3.5000000000000004 1.1738082047626346 11.500000000000002 2.5000000000000004 0.67608553083907152 0.019500000000000003 0.031500000000000007 9.5000000000000018 0.4706169899080524 0.080500000000000016 40.500000000000007 44.500000000000007 5.5000000000000009 2.5000000000000004 5.5000000000000009 0.025500000000000005 14.500000000000002 0.20590597730457427 19.500000000000004 19.500000000000004 0.43695384252562325 1.0000000180025095e-35 34.500000000000007 14.500000000000002
decision_type=2 2 2 2 2 2 2 2 2 2 2 2 2 2 2 2 2 2 2 2 2 2 2 2 2 2 2 2 2 2
left_child=1 6 11 5 8 18 19 -8 -2 10 14 23 29 -13 -6 -10 21 -11 26 -1 -21 -9 -19 -3 25 -25 -4 -14 -29 -5
right_child=4 2 3 12 9 -7 7 16 15 17 -12 13 27 -15 -16 -17 -18 22 -20 20 -22 -23 -24 24 -26 -27 -28 28 -30 -31
leaf_value=0.33917244695168858 0.21424897376870145 0.57528105679837727 0.46609595827067185 0.4443389147739743 0.56882863936902184 0.49777951825025019 0.24339217212768857 0.5113804393602015 0.4503356885437137 0.16324358138609232 0.16661263780225535 0.44547946256689447 0.51399471256338403 0.54799214116370032 0.16392554943188267 0.23117032101880644 0.28205884831616601 0.16575682619237822 0.22909130236328618 0.19053567568113552 0.27154851152353765 0.373821780522685 0.55314473015293664 0.46621149413632906 0.48420571594422213 0.56660529716670338 0.28770321342800947 0.41374088852678831 0.51868692967781516 0.56450240192511403
leaf_weight=880.7479724390796 2849.5936756487467 251023.34570554696 504.02027241209112 630.0519525610207 649.55577881427871 1620.5820988802675 2943.4751925495734 2034.0039080817551 1569.223810632383 178399.61288892894 1270.690998920275 2636.9062103689903 1863.9321276060846 20269.938304071406 181.39157001498643 477.29692147247124 602.51768279566704 109.19454829502155 2886.0106265367667 6397.1622230907506 2777.6748890184044 921.48297654238922 175.65014741456599 960.10989975583834 2049.2418869345202 11937.521563605869 627.69900170753613 3844.9585765653774 946.60037468558403 5496.6063103371707
leaf_count=5587 15390 1344174 1983 3961 31435 5025 16933 12604 5487 895337 3789 10867 8522 80418 4625 3079 3429 450 9088 35958 15500 3986 2106 9177 12603 57234 2061 21283 8837 25241
internal_value=0.410215 0.548839 0.563629 0.450924 0.168436 0.334015 0.274345 0.349277 0.291521 0.165103 0.290593 0.570816 0.502496 0.536194 0.480251 0.399159 0.436895 0.163628 0.267954 0.225908 0.215044 0.468494 0.404305 0.573797 0.548869 0.559137 0.367131 0.45677 0.434492 0.552153
internal_weight=509537 323855 307298 18420.5 185682 5638.31 16557.1 6501.48 4896.11 180786 2101.64 288877 12782.1 22906.8 830.947 2046.52 3558 178684 4017.73 10055.6 9174.84 2955.49 284.845 265970 14946.9 12897.6 1131.72 6655.49 4791.56 6126.66
internal_count=2656169 1694471 1600474 86001 961698 18157 93997 36952 23956 937742 39849 1514473 67844 91285 36060 8566 20019 897893 13132 57045 51458 16590 2556 1423188 79014 66411 4044 38642 30120 29202
is_linear=0
shrinkage=1


Tree=1
num_leaves=31
num_cat=4
split_feature=23 13 25 28 23 16 5 13 24 13 28 21 7 14 24 28 13 2 13 28 13 1 13 14 22 25 4 25 13 9
split_gain=1.36959e+06 110703 21942.1 11228.7 5757.21 4578.49 3713.2 3158.44 2723.48 2711.96 2482.9 2467.45 3420.52 1811.05 1694.51 1369.23 1352.86 1193.67 1191.49 1181.95 1147.72 1060.43 1053.07 1560.65 1026.32 915.416 988.752 819.201 753.573 726.302
threshold=0.050050000000000004 11.500000000000002 0.3114031762720158 0 0.093850000000000003 2.2310130613743802 3.5000000000000004 11.500000000000002 0.019500000000000003 32.500000000000007 1 2.5000000000000004 9383.4094005000024 5.5000000000000009 0.080500000000000016 2 34.500000000000007 0.028500000000000004 14.500000000000002 3 2.5000000000000004 1.0000460000000002 3.5000000000000004 4.5000000000000009 2.5000000000000004 0.16502311375568315 14.500000000000002 0.5396506544935632 13.500000000000002 39.500000000000007
decision_type=2 2 2 9 2 2 2 2 2 2 9 2 2 2 2 9 2 2 2 9 2 2 2 2 2 2 2 2 2 2
left_child=1 5 8 16 7 13 9 -2 25 19 22 12 29 20 -9 -15 -4 28 24 -5 -1 -12 -7 -24 -10 -3 -27 -17 -8 -6
right_child=4 2 3 6 11 10 17 14 18 -11 21 -13 -14 15 -16 27 -18 -19 -20 -21 -22 -23 23 -25 -26 26 -28 -29 -30 -31
leaf_value=-0.20291432478039118 -0.1692965979595705 0.15547184500938158 -0.16325271191782179 0.049594851650640738 -0.19313494747070173 -0.18241510455919108 0.0052336035617266113 0.035127757179105552 -0.059497732309810973 0.079513850375259265 -0.033326671745835035 -0.21405325760138447 0.11714511534713601 -0.019263377343142287 -0.16375825512511921 -0.13478859844118893 0.0047663106517754541 0.070195278193544194 0.12437120633842332 -0.13687533315008113 -0.025675636751717336 0.12265542930163405 0.068369066381669827 -0.10941840465953921 0.092393558689586514 0.10357065811762559 0.14765083002231086 -0.19999838111101054 0.14544230850696319 0.121353460854083
leaf_weight=476.96959564772783 3611.5574368266439 230190.71843015551 2625.541118985755 436.50274784296505 1517.4994953890175 916.80194001267182 414.55892690820747 1622.1752647694534 649.22531964990208 1633.9430219015549 763.74168619755221 184243.3456261614 520.25790042230074 574.55585599641597 580.9949390394986 2751.5123652783404 586.09979526960024 5908.7229728401226 20183.972089585302 1501.9358567140639 1552.3435641619237 1013.1009831484847 704.83666488120843 1643.2804097148091 1408.3141544069788 7043.9998876297977 18446.513510215729 6504.4420839203449 5100.4453978491892 76.521215604213239
leaf_count=1734 20005 1289105 12576 1464 16488 5533 2231 5765 3419 5270 3483 892825 17574 2296 3308 13709 3098 31618 83345 4244 8634 6765 4890 9398 4521 35213 98870 37555 25500 5733
internal_value=0.000377317 0.129384 0.143591 0.03724 -0.209763 -0.119533 0.0735709 -0.111746 0.150558 -0.0153606 -0.0396964 -0.21282 -0.105331 -0.153466 -0.0173707 -0.171221 -0.132187 0.101444 0.116981 -0.0953316 -0.0674132 0.0553173 -0.0912959 -0.0560454 0.0444609 0.153479 0.135474 -0.180435 0.134906 -0.177971
internal_weight=505204 313032 296130 18207.7 192172 16901.6 14996.1 5814.73 277923 3572.38 5041.76 186358 2114.28 11859.8 2203.17 9830.51 3211.64 11423.7 22241.5 1938.44 2029.31 1776.84 3264.92 2348.12 2057.54 255681 25490.5 9255.95 5515 1594.02
internal_count=2656169 1694471 1600474 86001 961698 93997 70327 29078 1514473 10978 30069 932620 39795 63928 9073 53560 15674 59349 91285 5708 10368 10248 19821 14288 7940 1423188 134083 51264 27731 22221
cat_boundaries=0 6 11 16 21
cat_threshold=134217728 171442176 3975823872 402653694 167772160 1 67108880 0 2050 271728648 273678321 583671968 2181054752 16778512 2101248 2147483662 46316408 2164260868 4100 536971264 2684354560
is_linear=0
shrinkage=0.1


Tree=2
num_leaves=31
num_cat=5
split_feature=23 25 1 17 23 19 17 25 16 28 25 20 18 28 28 28 17 24 14 17 25 28 17 24 3 18 23 3 16 19
split_gain=1.12527e+06 91143.5 10464.4 7828.97 4622.65 4577.66 3968.8 3204.71 4350.66 2656.05 2562.1 2173.32 2121.6 1913.19 1770.99 1608.32 1571.59 1514.82 1465.37 2109.38 1401.93 1329.25 1257.37 1118.26 1017.14 991.419 933.077 2850.27 4058.19 848.557
threshold=0.050050000000000004 0.3455569634987728 1.0000460000000002 9.5000000000000018 0.093850000000000003 20.500000000000004 2.5000000000000004 2.6927154561297098 0.49715840529000682 0 0.26189293383005358 1.0000000180025095e-35 44.500000000000007 1 2 3 8.5000000000000018 0.080500000000000016 11.500000000000002 6.5000000000000009 0.50048752736141033 4 3.5000000000000004 0.049500000000000009 43.000000000000007 19.500000000000004 0.48443100000000006 45.000000000000007 0.17180654750807467 27.500000000000004
decision_type=2 2 2 2 2 2 2 2 2 9 2 2 2 9 9 9 2 2 2 2 2 9 2 2 2 2 2 2 2 2
left_child=1 3 7 5 11 13 20 8 15 -8 23 -2 26 -1 -12 -3 21 -13 19 -10 -4 -11 -9 -5 -14 -16 27 -6 -29 -17
right_child=4 2 6 10 12 -7 9 22 18 16 14 17 24 -15 25 29 -18 -19 -20 -21 -22 -23 -24 -25 -26 -27 -28 28 -30 -31
leaf_value=-0.055272498452242108 -0.17356638346856451 0.076736338356965528 0.047560583034676189 0.14502795693640066 -0.18143247072242988 0.12276896310921598 -0.098158618556089372 -0.072223498459189447 -0.12196897948211516 0.10057569351377182 0.13995151298312469 0.0013254369703041111 -0.16280219094742565 0.072915117856145087 0.056466163747021784 -0.13320213976206138 0.1196688029225193 -0.13548228901594248 -0.15735594954986462 0.066916400997943534 -0.13415214507758633 -0.022009712304839259 0.088394746159000559 -0.009447208991094358 0.16811319823607251 -0.076004164918084996 -0.19389986422516792 0.16981991887670231 -0.17690565689757043 -0.018384643256691768
leaf_weight=3432.4292149297371 2378.4711694235207 1264.1610635553784 569.42110766916289 255078.29928126282 29011.132257504971 4910.7544806129545 929.76344876315784 792.1791887286463 2683.0593167235347 1538.4991616776858 2110.3035054725733 2181.1281255495633 149.14449246411738 1748.5126585741455 1948.568071603489 991.33322450960372 4428.1600292582016 1285.8699099154787 8820.4572875261638 757.55381173402202 1663.1354329572493 2057.3986635398232 1263.3965930863878 469.36905685381498 242.67570051046727 794.52301198185751 156672.34237892271 570.44109574716788 823.86658595325059 1833.091366658063
leaf_count=22062 12036 6075 3344 1458611 111315 27136 7902 3316 12619 8961 10394 9824 617 10145 7567 5680 24662 7218 36242 2549 12775 13581 5151 3953 12241 4970 790658 12003 5786 6776
internal_value=0.000589316 0.1218 -0.0448221 0.140028 -0.187566 0.0536011 0.031454 -0.0911805 -0.105976 0.0611967 0.143377 -0.0999667 -0.190297 -0.0119708 0.0713789 -0.0166395 0.0796944 -0.0494394 -0.135762 -0.0803729 -0.0878052 0.0306701 0.0264906 0.144744 0.042058 0.0180174 -0.190784 -0.17472 -0.0350328 -0.0585098
internal_weight=493399 300084 29591.6 270493 193315 10091.7 11186.4 18405.2 16349.7 8953.82 260401 5845.47 187470 5180.94 4853.39 4088.59 8024.06 3467 12261.1 3440.61 2232.56 3595.9 2055.58 255548 391.82 2743.09 187078 30405.4 1394.31 2824.42
internal_count=2656169 1694471 149633 1544838 961698 59343 71225 78408 69941 55106 1485495 29078 932620 32207 22931 18531 47204 17042 51410 15168 16119 22542 8467 1462564 12858 12537 919762 129104 17789 12456
cat_boundaries=0 6 11 16 21 26
cat_threshold=1207959808 169410688 3973579264 536871934 671088640 1 2214592512 67240450 3696787522 32 1079900384 48279584 1024 4 0 8388606 8436538 2147485700 33554453 83896320 2231680256 2193760288 2113572 2101504 1153574912 7357566
is_linear=0
shrinkage=0.1


Tree=3
num_leaves=31
num_cat=6
split_feature=23 25 1 17 19 23 17 25 25 28 25 24 28 18 25 25 28 25 28 21 7 14 17 18 24 17 28 3 25 28
split_gain=939863 79658 8476.31 7242.94 4022.13 3963.36 3330.75 2576.69 3631.95 2479.61 2459.82 1863.05 1842.06 1734.72 1640.94 1640.56 1592.12 1349.05 1346.96 1269.28 2696.91 1155.38 1508.11 1081.22 1071.92 1036.95 865.628 848.641 845.474 775.715
threshold=0.050050000000000004 0.3455569634987728 1.0000460000000002 9.5000000000000018 25.500000000000004 0.093850000000000003 4.5000000000000009 2.6927154561297098 0.46664253863308075 0 0.24371178847813926 0.089430000000000009 1 44.500000000000007 0.46664253863308075 0.23549903034927597 2 2.2818208251154877 3 2.5000000000000004 9383.4094005000024 7.5000000000000009 3.5000000000000004 19.500000000000004 0.028500000000000004 3.5000000000000004 4 43.000000000000007 0.87487685111495517 5
decision_type=2 2 2 2 2 2 2 2 2 9 2 2 9 2 2 2 9 2 9 2 2 2 2 2 2 2 9 2 2 9
left_child=1 3 7 4 16 11 14 8 18 -8 24 15 -12 19 -4 -2 -1 -16 -3 20 -7 22 -10 -14 -5 -9 -23 -15 29 -11
right_child=5 2 6 10 -6 13 9 25 21 28 12 -13 23 27 17 -17 -18 -19 -20 -21 -22 26 -24 -25 -26 -27 -28 -29 -30 -31
leaf_value=-0.062200770961809738 0.041458668921870612 -0.12086084350422639 0.059832502503966739 0.13931569630227877 0.12452909368200978 -0.16164950681265181 -0.093965121308883903 -0.064614603500727938 -0.12188719369348716 0.11818302536789629 0.1340028155906256 -0.16517438534804396 0.064225113354842656 -0.14747491922741224 -0.11073576209617919 -0.096968421384589942 0.043230858808300798 0.07631776496511504 0.0020972557127542637 -0.17510251908136532 0.10816948473224741 -0.0038414071970413058 0.064445010723877996 -0.054426082948369474 0.09391895737231569 0.081708630263581369 -0.14820612084550042 0.1575246117450799 0.12960366329197442 0.014269690249349066
leaf_weight=2615.388440200883 1330.4659652166229 1136.9528148286659 1128.3039839572975 234505.90321564855 4138.5768107149515 1487.5168066687875 797.67567819418036 796.76141581397428 1223.6759560755436 1177.1947578655049 3114.9862580345421 2109.4022750153786 2633.4397024354494 148.31277939980441 2498.4773841432075 2398.1812851462123 3139.5221263836561 455.15451810499917 3986.0026177360292 182489.12301616051 492.39603162087224 446.8375279624247 672.31793121890951 1083.1749491000951 5328.0236666891433 1231.8560116573087 8900.9500688044518 233.61479461143085 3096.641696261348 1844.0404655748107
leaf_count=16729 5506 4210 7272 1428875 23777 11919 6316 3316 6001 6759 16097 11954 11183 617 20208 11618 18837 3067 16665 890269 17574 1222 2521 6696 22644 5151 39322 12241 14930 12673
internal_value=0.000721596 0.115392 -0.0405405 0.133257 0.0493542 -0.171235 0.0289107 -0.0820606 -0.0952364 0.0711877 0.136622 -0.090088 0.0774348 -0.173797 -0.0427143 -0.0475766 -0.00471925 -0.0818947 -0.0254412 -0.174238 -0.0945259 -0.127032 -0.0558148 0.0295604 0.138308 0.0242351 -0.141469 0.0390092 0.0927349 0.0552225
internal_weight=476641 285952 29392.8 256559 9893.49 190689 10997.5 18395.4 16366.7 6915.55 246666 5838.05 6831.6 184851 4081.94 3728.65 5754.91 2953.63 5122.96 184469 1979.91 11243.8 1895.99 3716.61 239834 2028.62 9347.79 381.928 6117.88 3021.24
internal_count=2656169 1694471 149633 1544838 59343 961698 71225 78408 69941 40678 1485495 29078 33976 932620 30547 17124 35566 23275 20875 919762 29493 49066 8522 17879 1451519 8467 40544 12858 34362 19432
cat_boundaries=0 5 10 15 21 26 31
cat_threshold=1073742080 179896320 3973580416 671089654 134217728 46183456 0 0 8192 2155872254 2348810752 34735106 3495428162 32 1075685568 268763136 1589248 3974775304 136315390 65568 1 46839530 2147483936 4 2048 2147483648 48377888 1024 17043456 71444480 8275518
is_linear=0
shrinkage=0.1


Tree=4
num_leaves=31
num_cat=0
split_feature=23 13 25 7 23 13 16 17 16 17 13 13 18 5 24 14 3 24 13 13 18 22 23 3 16 20 13 3 24 22
split_gain=794500 73614 15733.9 6334.11 3535.52 3444.65 2956.65 3150.98 2548.11 2223.07 1974.83 1866.35 1445.78 1364.54 1117.86 1063.87 1824.62 1048.1 1043.87 952.567 864.08 846.368 803.611 2138.25 1639.84 771.584 717.93 716.091 713.022 650.391
threshold=0.050050000000000004 11.500000000000002 0.27301722608501328 343.21931300000006 0.093850000000000003 37.500000000000007 1.1738082047626346 3.5000000000000004 1.0718805222991719 10.500000000000002 10.500000000000002 17.500000000000004 44.500000000000007 3.5000000000000004 0.10135400000000001 3.5000000000000004 9.0000000000000018 0.021500000000000002 17.500000000000004 2.5000000000000004 9.5000000000000018 3.5000000000000004 0.42328200000000005 45.000000000000007 0.52089949101412791 1.0000000180025095e-35 22.500000000000004 43.000000000000007 0.049500000000000009 5.5000000000000009
decision_type=2 2 2 2 2 2 2 2 2 2 2 2 2 2 2 2 2 2 2 2 2 2 2 2 2 2 2 2 2 2
left_child=1 6 9 11 10 8 -1 19 13 18 -2 25 22 20 -12 -9 29 -11 21 -8 26 -3 23 -6 -25 -4 -5 -14 -19 -17
right_child=4 2 3 5 12 -7 7 15 -10 17 14 -13 27 -15 -16 16 -18 28 -20 -21 -22 -23 -24 24 -26 -27 -28 -29 -30 -31
leaf_value=-0.13376280046159258 -0.13084158514721758 -0.021793711284941314 0.092491743187232911 -0.11887516238468632 -0.14934563329346204 0.076491856060349819 -0.15665735809625872 0.1215131568681676 0.08896655274764613 0.13398156013172718 0.018076979951251973 0.1271574560536165 -0.13509754371724714 -0.018147995246763488 -0.1657731787020198 -0.10108304328395126 0.092131643281067668 0.10816444401011392 0.11437474438633331 -0.065748878924317342 -0.16475554938056625 0.092316170030200012 -0.16415167471687631 0.15894034592713452 -0.16158511780808527 0.00044097839620722818 -0.0038164950581837118 0.14907762888609374 -0.027366866763709332 0.099842764185894939
leaf_weight=8577.1624756123565 3394.0726802465438 1648.3500975947295 1582.032326247494 1242.2316650593139 22198.28436406772 3188.9586238846769 1929.009873070338 830.2961425059907 1175.801480905654 215423.89300498337 2002.0815363168854 7002.7958506444866 145.91926145979704 2845.3640663800916 395.12528245007161 1371.1289390393558 1069.8387831983689 11647.387804485723 2331.3225417853082 2868.4149223158743 1629.7635577523338 1071.8854608290972 156411.22165177576 403.3299487389088 262.75438973788164 2143.7561157653799 962.00607933570018 222.777834785479 401.1788739656804 181.72520803262773
leaf_count=48672 18918 9608 8424 4631 91877 14127 10063 4860 5064 1401701 7982 38935 617 20084 2178 8330 6047 54095 16112 15243 4510 5262 817328 8956 1601 11028 3089 12241 3804 782
internal_value=0.000806385 0.109903 0.123307 0.0420164 -0.158702 -0.0111448 -0.0926539 -0.049906 -0.0467279 0.130918 -0.0817768 0.096737 -0.161182 -0.0706246 -0.012283 0.0229348 -0.00830777 0.132375 0.0652853 -0.102328 -0.109555 0.0231877 -0.161589 -0.144048 0.032448 0.0395416 -0.0686841 0.0365484 0.10365 -0.0775203
internal_weight=456560 271124 254297 21772.7 185436 11044.1 16827.6 8250.41 7855.17 232524 5791.28 10728.6 179644 6679.37 2397.21 3452.99 2622.69 227472 5051.56 4797.42 3834 2720.24 179276 22864.4 666.084 3725.79 2204.24 368.697 12048.6 1552.85
internal_count=2656169 1694471 1600474 109892 961698 51505 93997 45325 37378 1490582 29078 58387 932620 32314 10160 20019 15159 1459600 30982 25306 12230 14870 919762 102434 10557 19452 7720 12858 57899 9112
is_linear=0
shrinkage=0.1


Tree=5
num_leaves=31
num_cat=3
split_feature=23 13 25 28 23 25 2 17 25 13 13 28 21 13 13 13 19 28 13 14 24 24 13 18 12 18 7 1 1 13
split_gain=678224 63805.5 14616.4 6638.53 3252.04 2498.67 2478.41 2098.23 2036.69 1704.6 1677.35 1671.74 1340.67 1932.2 1295.96 1238.83 1765.27 1206.33 1132.66 1008.93 995.676 960.989 950.058 691.539 605.296 579.692 579.376 893.797 575.425 562.801
threshold=0.050050000000000004 11.500000000000002 0.25224307798949647 0 0.093850000000000003 2.8747915429550814 0.031500000000000007 10.500000000000002 0.11301823364562071 11.500000000000002 34.500000000000007 1 2.5000000000000004 34.500000000000007 5.5000000000000009 46.500000000000007 50.500000000000007 2 14.500000000000002 4.5000000000000009 0.024500000000000004 0.10135400000000001 3.5000000000000004 44.500000000000007 0.77351800000000004 20.500000000000004 5161.4230760000009 1.0000000180025095e-35 0.90000000000000013 32.500000000000007
decision_type=2 2 2 9 2 2 2 2 2 2 2 9 2 2 2 2 2 9 2 2 2 2 2 2 2 2 2 2 2 2
left_child=1 5 7 10 9 8 18 -3 -1 -2 -4 -8 13 -6 -10 16 29 -16 -5 -19 -9 26 -7 -14 -15 -12 27 -11 -18 -13
right_child=4 2 3 6 12 22 11 20 14 21 25 15 23 24 17 -17 28 19 -20 -21 -22 -23 -24 -25 -26 -27 -28 -29 -30 -31
leaf_value=0.098048023441833609 -0.11735668248894929 0.052844232287535667 -0.11081221641258221 0.0011855108632997107 -0.128073516536168 -0.076327746046032749 0.10111185414792589 0.12926625824371671 -0.13498182300229608 -0.21883506597821173 0.069880319607981398 0.0098845746757226117 -0.15241540202582882 0.14503066956395902 0.022909326203958278 0.098493638368471345 -0.15589938036503248 -0.0042968692056508722 0.12476039429030208 -0.10977606015128034 0.092049310946923174 -0.15342070740290392 0.088416225341480456 0.0072975780557606651 -0.15158611840283631 -0.091985877521898171 0.14607420549979852 0.026225594510044099 -0.009509178223598631 0.099146554752387206
leaf_weight=515.31846355454581 3517.7319339464648 3787.8935364350909 2966.5906838446554 828.32503330541385 1440.2238546828598 518.78991701388213 3229.4154745029959 203998.33052456015 7013.475757104301 166.72541418671653 893.2231019638117 5162.4380308602513 170522.92743998626 431.14139603343182 1077.6865199809877 1536.0908105363051 840.44620885030906 1094.8327932082375 7094.8059057499495 5282.4764305075514 7462.7257017223455 361.0366712195846 1071.3715501269421 271.44659607045469 80.978797483010396 293.05093901057387 323.63331616666073 1320.1223921262877 394.55456867217492 817.37775787829287
leaf_count=4241 19906 24059 13607 5576 15122 2918 17675 1415265 38787 481 3624 24635 890269 24211 4833 7289 2665 7574 40961 30589 34685 2013 4860 2547 360 1960 734 5814 2194 6301
internal_value=0.000874553 0.105228 0.11837 0.0444408 -0.148769 -0.0845148 0.0684193 0.126632 -0.0971632 -0.07436 -0.0704646 0.0397513 -0.151219 -0.0687722 -0.104122 0.0169631 -0.000383133 -0.0750761 0.111843 -0.0915278 0.127953 -0.00468597 0.0346543 -0.152162 0.0979242 0.0298499 0.0250423 -0.00138252 -0.109177 0.0221003
internal_weight=434315 255879 239305 24056.3 178436 16574 19903.5 215249 14983.8 5689.25 4152.86 11980.3 172747 1952.34 14468.5 8750.91 7214.82 7455 7923.13 6377.31 211461 2171.52 1590.16 170794 512.12 1186.27 1810.48 1486.85 1235 5979.82
internal_count=2655755 1694298 1600496 126487 961457 93802 107296 1474009 86024 28948 19191 60759 932509 39693 81783 43084 35795 42996 46537 38163 1449950 9042 7778 892816 24571 5584 7029 6295 4859 30936
cat_boundaries=0 6 11 16
cat_threshold=218365952 175636480 3975700992 268435774 134217728 1 46183803 2147483652 4100 84060160 2216690718 583697056 4342052 5376 539691008 1295
is_linear=0
shrinkage=0.1


Tree=6
num_leaves=31
num_cat=6
split_feature=24 24 25 13 28 17 24 13 25 18 28 3 25 28 13 13 16 28 1 13 20 17 13 16 15 19 24 28 28 17
split_gain=503365 85287.5 52535.7 8089.28 5277.93 5220.91 4468.9 3511.06 2559.59 2452.16 2313.43 2255.56 1783.33 1591.9 1490 1111.04 1309.25 1079.55 966.398 854.037 887.204 806.571 756.383 731.618 2891.8 664.047 654.563 652.551 598.409 534.705
threshold=0.049500000000000009 1.0000000180025095e-35 0.32716573387421 11.500000000000002 0 9.5000000000000018 0.10135400000000001 17.500000000000004 2.4749218824446211 37.500000000000007 1 33.000000000000007 0.22719996744186258 2 10.500000000000002 38.500000000000007 1.4088819408647277 3 1.0000000180025095e-35 5.5000000000000009 1.0000000180025095e-35 2.5000000000000004 47.500000000000007 0.015841164479149954 33.500000000000007 50.500000000000007 0.019500000000000003 4 5 9.5000000000000018
decision_type=2 2 2 2 9 2 2 2 2 2 9 2 2 9 2 2 2 9 2 2 2 2 2 2 2 2 2 9 9 2
left_child=1 -1 5 8 -5 7 14 17 19 23 29 -11 26 22 -2 16 25 -3 -16 -4 28 -10 -14 24 -8 -12 -7 -22 -21 -6
right_child=6 2 3 4 10 12 9 -9 21 11 15 -13 13 -15 18 -17 -18 -19 -20 20 27 -23 -24 -25 -26 -27 -28 -29 -30 -31
leaf_value=-0.14721423737334524 -0.098230159077184798 -0.060650458399023999 -0.12515819781591545 0.097852897644612191 0.0075188111024663985 0.12616076188848921 0.16581804069236689 0.11091654728523137 -0.049181381884443362 -0.13679012063087437 -0.064970552882476038 0.14490003319984657 -0.062924359002304697 0.0982801334706358 -0.17049281097136124 0.035702347869411323 0.1018202137018956 0.043831380017265276 0.026287421676099335 -0.13454045824648003 0.0027899380280138994 0.091680916901138026 0.08598346653711525 -0.1449429512926976 -0.13016685629778305 -0.14427122302272166 0.10373225665067659 -0.10416027581678917 0.059124017592741378 0.093872802508458461
leaf_weight=14516.535965679068 3185.8609650435915 2674.1095314437453 6056.8171638817157 5933.8431526391005 1438.945087776304 181089.60567071722 369.53279614766052 3720.654174216952 694.78654166452657 569.16511181982878 3092.6889261933557 565.87304509204751 1057.7392985742399 6177.4667999889025 279.62819168971464 1039.9029049344945 375.24033102561407 1556.8559402590699 2254.0813939175177 192.00580848321368 675.26507960516892 976.98574206764783 502.29208759653284 147218.52080540324 3032.290524911482 1605.2611804116868 14054.378922634263 3948.6405553712534 738.35155994967204 1428.6645305430236
leaf_count=53439 18754 15940 33929 31791 7079 1360951 9358 26312 3302 2559 14911 24616 4965 37540 742 4801 1464 9290 10311 2137 2897 4678 1943 841934 14174 7865 72949 21785 4698 8641
internal_value=0.000911831 0.0881256 0.102419 -0.0257739 0.0247721 0.119563 -0.139509 0.04007 -0.0825267 -0.142779 -0.023603 0.00365038 0.122679 0.0755777 -0.0527239 -0.0583375 -0.077732 -0.0222431 0.00451144 -0.0991826 -0.0708392 0.0331443 -0.0148601 -0.143883 -0.0979754 -0.092092 0.124546 -0.0887635 0.0182445 0.0503831
internal_weight=411022 253547 239031 28197.4 14914.5 210833 157475 7951.62 13282.9 151755 8980.7 1135.04 202881 7737.5 5719.57 6113.09 5073.19 4230.97 2533.71 11611.1 5554.26 1671.77 1560.03 150620 3401.82 4697.95 195144 4623.91 930.357 2867.61
internal_count=2655755 1733307 1679868 149978 76552 1529890 922448 51542 73426 892641 44761 27175 1478348 44448 29807 29041 24240 25230 11053 65446 31517 7980 6908 865466 23532 22776 1433900 24682 6835 15720
cat_boundaries=0 5 10 15 20 25 30
cat_threshold=46182458 4 4100 2048 2155275646 3149761 3221357080 360464 96608256 67705472 335809024 171966528 1559765504 1081098302 1082130432 67108864 4098 2497284160 0 1348332256 34210529 2158166048 1280 537864448 536872207 5242944 92274696 1073741824 1048590 651904
is_linear=0
shrinkage=0.1


Tree=7
num_leaves=31
num_cat=6
split_feature=23 13 13 5 17 21 14 23 3 28 28 17 19 16 16 28 17 20 1 22 19 19 3 23 15 13 28 28 28 16
split_gain=503776 51216.2 7236.2 7636.25 5418.9 2622.67 1842.53 1765.4 2185.07 1672.15 1627.31 1646.97 1384.56 1313.4 1304.48 1187.28 1046.24 888.146 1406.7 850.381 845.602 836.857 778.075 743.872 753.613 739.195 805.098 653.97 652.907 649.888
threshold=0.055850000000000004 13.500000000000002 28.500000000000004 3.5000000000000004 8.5000000000000018 10.500000000000002 3.5000000000000004 0.42328200000000005 45.000000000000007 0 1 10.500000000000002 15.500000000000002 0.52089949101412791 0.42252319033033581 2 1.5000000000000002 1.0000000180025095e-35 1.0000000180025095e-35 2.5000000000000004 29.500000000000004 21.500000000000004 29.000000000000004 0.023350000000000006 79.500000000000014 4.5000000000000009 3 4 5 0.7733492060420869
decision_type=2 2 2 2 2 2 2 2 2 9 9 2 2 2 2 9 2 2 2 2 2 2 2 2 2 2 9 9 9 2
left_child=1 4 3 5 6 28 16 8 17 21 20 27 -6 -10 -4 -16 -1 -2 -19 -14 -5 -8 -20 -13 -25 -11 -27 -12 -3 -18
right_child=7 2 14 10 12 -7 9 -9 13 25 11 23 19 -15 15 -17 29 18 22 -21 -22 -23 -24 24 -26 26 -28 -29 -30 -31
leaf_value=-0.10656128821087707 -0.13119667022606182 0.024007792518889601 0.12059767130870919 0.038235551460869252 0.11477116878589395 0.056527588757859674 0.084887365104993562 -0.13946959724265634 0.14914264905247387 -0.12951515504967323 -0.030931519445185386 0.11187794186033957 -0.12310854326677403 -0.13657822637338649 -0.084161841501382839 0.082399884400625789 -0.072876641213002094 -0.14125949480672484 -0.06647774495331786 0.059915226561951467 -0.12086927216936923 -0.071931411667995354 0.18758644798074542 0.074907835827864214 -0.087736782649864509 -0.0086837357680767547 -0.094307778385079977 0.058343247234282351 -0.14001203496472769 0.069802101668821892
leaf_weight=651.03377326853479 14258.892659404279 274.67924131197128 172832.86789435218 959.65451669336721 2088.1725836006535 1184.8310199603093 779.57216963747089 135667.93757471727 507.20453503777395 5067.9234022029159 1031.7499826723163 17278.668427539531 485.10941344767753 234.4987281266221 487.91513214936236 3137.298702608758 402.82538922681579 3522.3338872668555 5657.4517754626577 530.45193373540087 511.14082209918138 602.34622021376924 122.22501908097729 2421.490728194095 322.00316994524383 1310.638215893166 7203.1090708879346 3932.9958452435512 2314.0334722519947 1524.9391845450837
leaf_count=3689 73545 1384 1350807 7070 13610 4748 3202 820632 18129 30280 6006 138101 2316 1616 4000 20603 2990 10326 31293 2350 4940 2257 1275 10255 1493 6289 44065 23345 6982 8157
internal_value=0.000935743 0.0966061 0.111607 0.0663985 -0.053571 -0.0666682 -0.0751201 -0.135022 -0.110188 -0.0885734 0.085379 0.0913752 0.0682102 0.0587462 0.119352 0.0599606 0.00294704 -0.115509 -0.0914489 -0.027546 -0.0169868 0.0164124 -0.0610734 0.104196 0.0557933 -0.0991951 -0.08125 0.0398433 -0.123054 0.0399656
internal_weight=387306 227335 206689 30231.2 20646.1 3773.54 17542.4 159971 24302.6 14963.6 26457.7 24986.9 3103.73 741.703 176458 3625.21 2578.8 23560.9 9302.01 1015.56 1470.8 1381.92 5779.68 20022.2 2743.49 13581.7 8513.75 4964.75 2588.71 1927.76
internal_count=2655755 1698939 1579734 204324 119205 13114 100929 956816 136184 86093 191210 179200 18276 19745 1375410 24603 14836 116439 42894 4666 12010 5459 32568 149849 11748 80634 50354 29351 8366 11147
cat_boundaries=0 5 11 17 22 27 32
cat_threshold=583184544 2149581088 19136768 751734784 2147483662 1207959552 168820800 3470288488 742 184549376 1 4026531844 170655744 3973579266 134218230 134217728 1 1835600 180551684 33559552 1362192385 805307648 622658048 541217298 131 1912602648 1343259264 47364592 4195076 102660 100671488 2147483648
is_linear=0
shrinkage=0.1


Tree=8
num_leaves=31
num_cat=5
split_feature=23 25 17 1 23 16 24 25 25 28 20 25 28 17 17 28 24 25 24 28 21 26 16 15 21 26 21 1 28 21
split_gain=437038 45515.5 4858.38 4775.58 2816.24 1973.81 1915.28 1875.07 1487.86 1530.12 1398.19 1386.51 1393.52 1216.82 1073.19 1054.27 1051.45 975.972 935.742 935.463 926.533 1569.34 891.304 627.452 831.723 1320.63 1146.36 618.595 615.248 613.832
threshold=0.050050000000000004 0.3114031762720158 10.500000000000002 1.0000460000000002 0.15220000000000003 0.4706169899080524 0.015500000000000002 1.7136084638881137 0.20590597730457427 0 1.0000000180025095e-35 1.959517344783605 1 2.5000000000000004 3.5000000000000004 2 0.028500000000000004 0.50048752736141033 0.10135400000000001 3 2.5000000000000004 0.67608553083907152 0.4706169899080524 57.500000000000007 28.500000000000004 1.9527570137555732 17.500000000000004 1.4665965000000003 4 17.500000000000004
decision_type=2 2 2 2 2 2 2 2 2 9 2 2 9 2 2 9 2 2 2 9 2 2 2 2 2 2 2 2 9 2
left_child=1 2 6 5 10 19 -1 15 16 -10 -2 12 -5 17 -9 -7 -4 -14 27 -3 21 22 -6 -18 25 -25 -27 -12 -15 -8
right_child=4 3 8 11 20 7 29 14 9 -11 18 -13 13 28 -16 -17 23 -19 -20 -21 -22 -23 -24 24 -26 26 -28 -29 -30 -31
leaf_value=0.10064525169255562 -0.11638002187841162 0.076153187908122463 0.11935878702454283 -0.071156263123968763 0.1364383791085409 -0.026457048138803452 0.03703005043553128 -0.064064697843696297 -0.0097589602702038217 0.096038566913915768 -0.018720890636028189 0.1041627791906852 0.059715305469528794 0.095419143374655527 0.060601169197733867 -0.10398975747417601 0.094996633269941885 -0.096666625636388226 -0.090537042682527658 -0.024795653309843364 -0.13270636118779541 -0.13509167351574833 -0.14176688658739461 0.078403600472328625 0.11702373914610516 -0.012776265848556213 -0.34333633669786146 0.12535959132603891 0.027462497751626725 -0.0316441171712772
leaf_weight=3031.5934002221948 4322.9535668067083 1323.4452572901951 161292.0691221712 1595.6940804897868 468.5149843017507 2202.2771303610525 2461.0702113790485 1288.3064670046006 1681.7815826427791 7398.9252969599365 2559.9241193086814 2064.5830095736128 617.00169211403863 2201.5917636419135 1485.8672847784092 9119.612084976754 2523.0264552485605 1126.1627214341734 2026.4355710637547 2931.1601434301688 141235.79245312567 974.49372288704672 151.68783609970706 400.78432399595687 456.22633177042007 213.58992007374763 205.33730884711775 336.22527431940262 3423.0530293721285 2760.291558572595
leaf_count=24560 26575 7069 1387939 13590 30898 11206 12072 5583 8196 53552 12772 12258 4350 15297 6294 42221 15281 10107 13248 13346 868907 3457 4538 2952 1284 605 543 1062 25498 20495
internal_value=0.000946929 0.0938101 0.112413 -0.0217042 -0.128388 -0.0529582 0.0374376 -0.0709751 0.115966 0.0765405 -0.0748873 0.0303023 0.0132802 0.0316279 0.00270501 -0.0890274 0.118134 -0.041312 -0.0384326 0.00673687 -0.13185 -0.0560052 0.0682769 0.0661051 0.00894556 -0.0512767 -0.175232 -0.00195653 0.0542927 0.000726099
internal_weight=363879 211803 182425 29378.8 152076 18350.7 8252.96 14096.1 174172 9080.71 9245.54 11028.1 8963.5 7367.81 2774.17 11321.9 165091 1743.16 4922.58 4254.61 142830 1594.7 620.203 3798.96 1275.94 819.712 418.927 2896.15 5624.64 5221.36
internal_count=2655755 1694298 1527479 166819 961457 85719 57127 65304 1470352 61748 53657 81100 68842 55252 11877 53427 1408604 14457 27082 20415 907800 38893 35436 20665 5384 4100 1148 13834 40795 32567
cat_boundaries=0 5 10 15 20 25
cat_threshold=470024704 171966464 3640140352 40911166 1073741824 1207959808 202899456 4243587584 570426110 671158272 46839546 2147549472 34052 541067264 2147620096 2155921170 536881156 33554453 16787456 2232726784 2732728352 1056 17045504 139265 7358078
is_linear=0
shrinkage=0.1


Tree=9
num_leaves=31
num_cat=5
split_feature=23 25 13 17 28 24 23 3 25 25 25 13 18 24 28 28 24 14 17 22 13 16 21 28 13 1 28 25 25 21
split_gain=380493 42326.2 6236.79 5019.56 3846.41 2060.95 1800.11 1731.97 1594.34 1591.53 1400.95 1377.61 1299.16 1097.28 1080.65 928.147 916.304 880.627 892.127 781.626 761.771 688.941 686.962 683.894 671.884 565.447 565.376 555.904 547.198 541.764
threshold=0.055850000000000004 0.3114031762720158 10.500000000000002 12.500000000000002 0 0.015500000000000002 0.40000200000000008 45.000000000000007 4.4397088915694853 1.3863420610567547 0.22719996744186258 39.500000000000007 18.500000000000004 0.10135400000000001 1 2 0.024500000000000004 4.5000000000000009 1.5000000000000002 3.5000000000000004 17.500000000000004 0.4706169899080524 17.500000000000004 3 3.5000000000000004 1.4665965000000003 4 0.0070261983124411008 0.5396506544935632 1.5000000000000002
decision_type=2 2 2 2 9 2 2 2 2 2 2 2 2 2 9 9 2 2 2 2 2 2 2 9 2 2 9 2 2 2
left_child=1 3 8 5 20 -1 7 13 17 11 16 14 -12 26 -6 -14 -5 18 -3 22 -4 -9 -7 -19 -10 -15 -2 -27 -25 -8
right_child=6 2 4 10 9 19 29 21 24 -11 12 -13 15 25 -16 -17 -18 23 -20 -21 -22 -23 -24 28 -26 27 -28 -29 -30 -31
leaf_value=0.099787228405403702 0.019983250322738073 -0.11879291499776595 0.039029290571661594 0.11675028394133909 -0.10917568605105539 0.023137152402110749 0.045632676593358408 0.1467877811468688 -0.061598935642888521 0.090147412190919499 0.092473507386234541 0.048770947290793787 -0.11501358845826698 -0.12012292314032554 -0.025755074966905295 0.050348335258031375 0.075877906365665604 0.010258406101652318 0.025238737642656769 0.062068349817746317 0.10900255488857623 -0.12046798345539832 -0.052603549602982004 -0.059817677392096862 0.09845448938103557 0.12045714773449323 -0.073588805958239495 -0.079901093333076795 -0.1162915235706185 -0.12935916815751344
leaf_weight=4054.328884681292 862.53567990079193 639.98418286120932 2635.0845922391595 148490.39489548854 2258.791969045049 2571.661671946576 176.72412181959953 398.06032640353612 410.45163999705937 1186.5667522982312 3700.2224025459923 1670.0201923847226 589.45591188017374 14029.699053006952 4987.8525755435176 771.69447673731179 5702.9918639741081 579.06110050164796 1305.9761157315138 2013.6627609783454 3803.4219406994584 126.36574102143106 2239.3637302026705 2277.902942745206 722.91364403879606 146.60116111060916 2555.4376849432388 2270.0671024678218 6996.0196841453271 120945.45921221164
leaf_count=33263 4505 3835 14277 1387075 12833 13278 11792 15391 2382 5770 23699 8210 2945 77275 26033 7899 32219 2354 7564 11416 24809 964 17418 13253 3729 660 13917 13766 44678 818546
internal_value=0.000958386 0.0898838 -0.0207502 0.10905 0.0199228 0.0433262 -0.124475 -0.0969732 -0.0727726 -0.0185875 0.11354 -0.0330865 0.061752 -0.10171 -0.0519551 -0.0217694 0.115239 -0.0836544 -0.0221668 0.00977481 0.0802505 0.0822831 -0.0121211 -0.0957947 0.0404875 -0.112425 -0.0501335 -0.0677021 -0.102318 -0.129103
internal_weight=341119 199608 29474 170134 16541.7 10879 141511 20388.8 12932.3 10103.2 159255 8916.66 5061.37 19864.3 7246.64 1361.15 154193 11798.9 1945.96 6824.69 6438.51 524.426 4811.03 9852.98 1133.37 16446.4 3417.97 2416.67 9273.92 121122
internal_count=2655755 1698939 169727 1529212 91932 75375 956816 126478 77795 52846 1453837 47076 34543 110123 38866 10844 1419294 71684 11399 42112 39086 16355 30696 60285 6111 91701 18422 14426 57931 830338
cat_boundaries=0 5 11 15 20 25
cat_threshold=46183738 0 4100 2048 2155275646 1207959552 136069184 3995222536 268435710 452984832 1 2214592512 170131585 4244111888 9437694 583180464 2183151904 262400 524544 14 680534016 279044 8654912 92405761 1080164414
is_linear=0
shrinkage=0.1


Tree=10
num_leaves=31
num_cat=6
split_feature=24 24 25 13 28 17 24 18 4 25 13 13 19 25 4 13 1 28 1 28 28 18 9 4 16 13 17 28 24 28
split_gain=286359 49797.3 35187.1 6193.15 4057.28 4017.83 3797.3 2066.44 2051.97 1673.58 1516.89 1355.72 1458.39 1120.43 1557.61 1098.39 1033.89 969.541 879.817 797.163 751.434 682.987 1050.7 681.241 1002.42 668.058 661.307 655.541 577.415 576.081
threshold=0.049500000000000009 1.0000000180025095e-35 0.27301722608501328 13.500000000000002 0 9.5000000000000018 0.18450000000000003 35.500000000000007 13.500000000000002 2.1179660170566721 10.500000000000002 46.500000000000007 52.500000000000007 0.14718746188774687 14.500000000000002 17.500000000000004 1.0000000180025095e-35 1 1.5000265000000004 2 3 21.500000000000004 28.500000000000004 26.500000000000004 0.4706169899080524 34.500000000000007 3.5000000000000004 4 0.028500000000000004 5
decision_type=2 2 2 2 9 2 2 2 2 2 2 2 2 2 2 2 2 9 2 9 9 2 2 2 2 2 2 9 2 9
left_child=1 -1 5 9 -5 15 10 23 -9 18 -2 12 17 28 21 20 -12 -6 29 -20 -3 25 -23 -8 -25 27 -11 -15 -7 -4
right_child=6 2 3 4 11 13 7 8 -10 26 16 -13 -14 14 -16 -17 -18 -19 19 -21 -22 22 -24 24 -26 -27 -28 -29 -30 -31
leaf_value=-0.12716195401142924 -0.087561141814909718 0.082811281168320497 -0.027587622606313283 0.091721201955679441 -0.06598807111986793 0.11573560160139747 -0.12460881281497541 -0.11302093519715187 0.15094642344176734 -0.027100793209526637 -0.14218425134631882 0.07224824963794417 -0.11101755315971787 -0.094125425503010993 0.10881044867548025 0.088744159569490444 0.018190757720143589 0.021009816945092963 -0.075549365492001377 0.016283480054579431 -0.040535802529384476 0.023755433638806805 -0.20552632431647955 0.19518316296245969 -0.12884748071300442 0.099745900190969683 0.088654721091194766 0.053211100281970292 0.070502780087187508 -0.0986427264541027
leaf_weight=11309.530572294549 5650.1700129508117 602.1314121781179 1386.5166236142113 6915.1621063469011 1798.6450832465569 127585.97609909408 113333.49982271428 637.78480771823683 545.38275527020437 1013.77119422392 463.50974930430266 1687.8955568868569 1619.226788265064 387.7224228642603 11950.347718187346 1438.5657764410957 2984.9899923754224 4374.7050787001626 1873.0642622240839 1894.7361429713756 2538.8201871683027 1506.8503272997184 229.40877569508234 164.12690073438756 225.33574832911069 2563.1029614934432 960.09029865229445 1238.7746507480783 2891.7167462689395 7280.1252532209428
leaf_count=53407 37261 3779 8059 48090 8844 1299563 828797 3396 25201 5608 1382 8031 8344 3119 108041 13454 17481 23790 15546 11134 15069 12402 1451 5272 4249 14915 4758 8705 15591 41759
internal_value=0.000952564 0.076492 0.0890281 -0.00847995 0.0335526 0.108668 -0.117863 -0.122787 0.00867991 -0.0563091 -0.055667 -0.00896868 -0.026579 0.111516 0.0880242 0.0164104 -0.00340007 -0.004417 -0.0698872 -0.029534 -0.0167364 0.0460944 -0.00664002 -0.124155 0.0078553 0.0679451 0.0292193 0.0178015 0.114734 -0.0874252
internal_weight=319052 195047 183737 30803.9 16395.6 152933 124005 114906 1183.17 14408.3 9098.67 9480.47 7792.58 148354 17876.2 4579.52 3448.5 6173.35 12434.4 3767.8 3140.95 5925.86 1736.26 113723 389.463 4189.6 1973.86 1626.5 130478 8666.64
internal_count=2656498 1733459 1680052 183963 97099 1496089 923039 866915 28597 86864 56124 49009 40978 1463787 148633 32302 18863 32634 76498 26680 18848 40592 13853 838318 9521 26739 10366 11824 1315154 49818
cat_boundaries=0 5 11 17 22 27 32
cat_threshold=46182714 0 0 2048 2155838846 151257088 142082048 4262470144 136332278 167772160 1 328 335544384 807404032 1610612746 162528784 1 39256288 2147549216 2097152 1705166848 538968350 1048576 38010880 3740803072 16630 1147144736 4858616 2382561568 16876548 541065216 5376
is_linear=0
shrinkage=0.1


Tree=11
num_leaves=31
num_cat=5
split_feature=23 25 13 17 2 23 25 3 28 25 24 1 13 28 28 13 19 28 14 25 24 26 13 24 25 0 3 13 26 28
split_gain=290614 35085.5 6372.52 3872.37 3712.99 1914.95 1507.37 2353.28 1480.37 1373.84 1328.62 1253.43 1176.94 938.141 804.108 750.828 824.79 716.185 669.965 739.056 631.409 618.566 618.032 588.612 564.455 799.888 921.566 545.98 545.912 486.125
threshold=0.055850000000000004 0.25224307798949647 13.500000000000002 10.500000000000002 0.040500000000000008 0.42328200000000005 0.58613757657679277 29.000000000000004 0 2.8747915429550814 0.021500000000000002 1.0000000180025095e-35 4.5000000000000009 1 2 46.500000000000007 52.500000000000007 3 6.5000000000000009 0.82188452205694673 0.18450000000000003 3.1066246783434384 43.500000000000007 0.049500000000000009 0.15591607202548011 0.5699240000000001 17.000000000000004 3.5000000000000004 1.3528738946892755 4
decision_type=2 2 2 2 2 2 2 2 9 2 2 2 2 9 9 2 2 9 2 2 2 2 2 2 2 2 2 2 2 9
left_child=1 3 9 17 -4 6 7 11 22 12 24 -2 -3 -14 -10 16 -16 -1 19 -15 28 -22 -6 -12 -5 -26 -27 -11 -13 -20
right_child=5 2 4 10 8 -7 -8 -9 14 27 23 20 13 18 15 -17 -18 -19 29 -21 21 -23 -24 -25 25 26 -28 -29 -30 -31
leaf_value=-0.046200524929353226 -0.12409339688872101 -0.10323761057129546 0.098482585335093867 0.11400270408504228 -0.074722221465129149 -0.12190724915835741 -0.10971117176759193 0.13862569290651555 0.07694205893978312 -0.052074382376877615 0.077183380379564348 -0.065672672155998896 0.029279277607449802 -0.041321386157679336 0.0076153109042771967 0.075011244972310515 -0.096600832232943579 0.041049657151179975 -0.11164313038195935 0.10121039529761011 -0.09954501252776099 0.1174813009200775 0.036688843537972866 -0.039395967126784198 0.10355307838784117 -0.25032264629085382 0.051043882221191286 0.071350945731607496 0.029525200102652496 -0.05107621021651193
leaf_weight=1275.2463415473544 2601.8283121722834 4867.3932699187371 5919.7997819484772 115469.12244325392 2746.4255466478694 103649.49153727737 12190.173608513302 590.5295973828197 2124.48200553897 521.33066600363236 7952.6055278591894 945.03363697395616 1519.7985558645446 1455.7157804003627 4806.5785399975694 1312.3025150523936 900.87308560809197 3503.895267152307 2133.3469945740903 483.88806075144475 1644.6409520002039 141.88831626848469 607.48086410418864 457.45257001926711 9314.3406465976768 105.66195594652163 2089.606589037001 1141.6762428701895 1657.2707765556988 3678.0663128303227
leaf_count=8776 9597 32684 46020 1284608 13936 821163 80794 19950 15019 3046 53913 11698 6868 9154 25689 7363 4302 25543 14403 2855 9388 395 2962 4072 87546 578 20552 6048 4456 23120
internal_value=0.000956442 0.0840612 -0.00671989 0.106224 0.0332504 -0.116466 -0.0879357 -0.052912 0.00234745 -0.0533085 0.109346 -0.0691095 -0.0634211 -0.0425076 0.02319 0.00682743 -0.00884837 0.0177526 -0.0565501 -0.00572904 -0.0364926 -0.0822524 -0.0543757 0.0708383 0.111896 0.090755 0.0364312 0.0326507 -0.0050581 -0.0736054
internal_weight=297808 174387 34219.2 140168 18417.9 123421 19771.4 7581.19 12498.1 15801.2 135389 6990.66 14138.2 9270.82 9144.24 7019.75 5707.45 4779.14 7751.02 1939.6 4388.83 1786.53 3353.91 8410.06 126979 11509.6 2195.27 1663.01 2602.3 5811.41
internal_count=2656498 1699057 213469 1485588 115291 957441 136278 55484 69271 98178 1451269 35534 89084 56400 52373 37354 29991 34319 49532 12009 25937 9783 16898 57985 1393284 108676 21130 9094 16154 37523
cat_boundaries=0 6 11 16 21 26
cat_threshold=201588736 175636480 4235354624 134234422 167772160 1 583667872 4194340 17043712 544090624 2684355854 46183803 3221225476 69636 141312 2214724670 203436544 1704962 1180174336 4194304 1359585920 1157627904 268436544 3424125442 1073742078 156958832
is_linear=0
shrinkage=0.1


Tree=12
num_leaves=31
num_cat=0
split_feature=23 25 13 2 17 23 13 19 20 3 24 16 13 5 13 5 21 5 25 13 14 21 26 13 25 4 14 16 7 13
split_gain=254775 32121.3 6019.43 3618.91 3458.54 1918.46 1502.92 1447.02 1349.42 1795.49 1275.69 1258.26 1540.44 1129.2 767.381 936.285 921.921 701.551 621.759 566.74 554.426 527.698 947.882 526.102 516.17 890.984 507.848 487.08 1255.77 552.884
threshold=0.055850000000000004 0.23549903034927597 13.500000000000002 0.028500000000000004 10.500000000000002 0.40000200000000008 47.500000000000007 51.500000000000007 1.0000000180025095e-35 29.000000000000004 0.024500000000000004 1.1738082047626346 2.5000000000000004 3.5000000000000004 27.500000000000004 3.5000000000000004 13.500000000000002 4.5000000000000009 0.5396506544935632 11.500000000000002 4.5000000000000009 2.5000000000000004 0.67608553083907152 16.500000000000004 0.15144715967831704 14.500000000000002 7.5000000000000009 0.031475089213354353 790.4699945000001 16.500000000000004
decision_type=2 2 2 2 2 2 2 2 2 2 2 2 2 2 2 2 2 2 2 2 2 2 2 2 2 2 2 2 2 2
left_child=1 4 11 -4 20 8 7 14 -2 13 24 18 -13 -10 15 16 -5 -14 -3 -15 -1 22 23 -7 -6 27 -19 28 -26 -29
right_child=5 2 3 6 10 21 -8 -9 9 -11 -12 12 17 19 -16 -17 -18 26 -20 -21 -22 -23 -24 -25 25 -27 -28 29 -30 -31
leaf_value=0.086310942800043047 -0.10692084071554692 -0.044042538196366825 0.10257230142461445 -0.10086074406182591 0.11204013412395009 -0.12405059375131799 0.075400223183176518 -0.081569928576432485 -0.12043096989061913 0.13831190851246497 0.060688902562792052 -0.10684310145295928 0.042521568936778928 -0.066865264486881001 0.052489524706152681 0.015607231705738687 0.059782788712836099 0.015874248992218235 -0.10028697959062803 0.0024485469244207008 -0.0052667182481097394 -0.1193533107267931 -0.12313225372036141 0.1421662407927658 -0.41270836190294297 0.10802295571945118 -0.062183870914112906 -0.16752672472637264 0.018195419781254409 0.074763594530584468
leaf_weight=832.09021687668064 9847.8824129481945 3386.3673556238846 5510.7384704590277 1620.431437655069 107153.24991472483 98.45532293575377 2626.7965082297524 2188.8341159529828 2322.7474161763266 470.23198058757498 5509.3320107489562 1605.9478499539255 2596.0208740951111 2595.0936406949281 2805.3124693931986 4518.6586276827848 457.47335620852414 1528.3691919643911 4691.7845761143117 2161.8828104739528 3201.6651726333621 96394.931038928873 626.15569360563427 292.95238352789272 74.855535068733616 7531.1124905691067 1831.3393301301198 96.973898607152023 623.17339830891501 2481.4229611377177
leaf_count=5322 69649 18534 48615 4952 1295356 4004 18702 10844 9203 17186 35030 10794 14847 20468 21456 24986 2246 7369 37035 10106 22983 805585 2704 18536 378 82938 10900 1620 5132 19018
internal_value=0.000953522 0.0813747 -0.00294508 0.0337861 0.104764 -0.113133 0.00711912 -0.00836056 -0.0825353 -0.0507176 0.107741 -0.0492774 -0.0199567 -0.0632907 0.00869004 -0.00994164 -0.0654816 0.00348598 -0.0767176 -0.0353706 0.0136408 -0.118597 -0.0468999 0.0750562 0.109938 0.0890845 -0.0266802 0.0455334 -0.0285383 0.0655896
internal_weight=277682 162872 35368.1 19728.2 127504 114810 14217.5 11590.7 17397.8 7549.96 123470 15639.8 7561.68 7079.72 9401.88 6596.56 2077.9 5955.73 8078.15 4756.98 4033.76 97412.5 1017.56 391.408 117961 10807.5 3359.71 3276.43 698.029 2578.4
internal_count=2656498 1699057 231280 131801 1467777 957441 83186 64484 126612 56963 1439472 99479 43910 39777 53640 32184 7198 33116 55569 30574 28305 830829 25244 22540 1404442 109086 18269 26148 5510 20638
is_linear=0
shrinkage=0.1


Tree=13
num_leaves=31
num_cat=7
split_feature=23 25 13 28 24 23 13 28 20 3 14 22 24 13 13 28 16 15 28 28 23 20 25 13 16 7 12 28 28 13
split_gain=223718 29534.6 5409.32 3036.24 3007.51 1944.22 1451.92 1851.2 1314.06 1825.7 1234.96 1194.89 1186.19 896.215 790.288 745.633 695.743 690.393 859.608 566.412 565.474 544.931 532.55 707.514 699.617 675.524 696.577 528.976 510.601 501.87
threshold=0.055850000000000004 0.22719996744186258 10.500000000000002 0 0.019500000000000003 0.42328200000000005 17.500000000000004 1 1.0000000180025095e-35 29.000000000000004 3.5000000000000004 1.5000000000000002 0.18450000000000003 47.500000000000007 11.500000000000002 2 1.1738082047626346 57.500000000000007 3 4 0.0090500000000000008 1.0000000180025095e-35 0.15144715967831704 17.500000000000004 0.05375226720162856 2104.4146300000007 1.6744450000000002 5 6 2.5000000000000004
decision_type=2 2 2 9 2 2 2 9 2 2 2 2 2 2 2 9 2 2 9 9 2 2 2 2 2 2 2 9 9 2
left_child=1 4 10 13 22 8 11 -8 -2 12 28 -5 19 -4 -6 -12 -17 -13 -19 -10 -9 -20 -1 -24 25 26 -25 -22 -3 -18
right_child=5 2 3 6 14 -7 7 20 9 -11 15 17 -14 -15 -16 16 29 18 21 -21 27 -23 23 24 -26 -27 -28 -29 -30 -31
leaf_value=0.11068453999810622 -0.10377542954526164 0.061987425534828833 -0.066582269556797122 -0.085451541740140677 -0.043379361003636138 -0.11620835487988053 0.098818803813411987 0.066440426606478573 0.034505807509290096 0.12962950662642758 -0.099319415172973879 0.054244484648296121 -0.1003023504262032 0.05768471356032856 0.062066870957490909 -0.07592917592011815 -0.10459991633572541 0.071013876649559021 0.018957129209979492 -0.05023707984572362 -0.046261684812809171 -0.11662225720984046 -0.026557519238070034 0.023694041441094361 0.1033220261697545 0.073667885282069856 -0.25098923111801047 0.030004554373358878 -0.040385118056964042 0.016549944275686786
leaf_weight=95564.472221294927 10031.788432478406 1097.7770270718702 3767.1089760153072 1174.344136018457 758.71855886580306 88817.79175843639 6905.5677920373491 1862.5597050311353 1248.2514404211786 532.59311217109735 4608.9050966569166 3270.5456208582118 3809.1294847494132 685.22948278257809 11095.041185424387 3091.2968600434801 411.6747259884994 664.57455867533645 458.9777717072418 2107.176645279892 1519.8098783358118 834.90559578947818 530.33734312538036 223.80109585576238 7593.0570069173909 760.26692990533013 155.96416566794639 2229.4890318091593 859.95447430465174 1993.8450141405563
leaf_count=1267536 74800 6034 19966 7024 5092 821163 61382 15642 7448 20059 32640 21200 20683 3419 82260 21286 3426 2995 3108 13288 8376 3338 6937 4024 85514 6347 599 13510 6146 11256
internal_value=0.000949888 0.0787823 -0.00117369 0.0268949 0.103065 -0.110172 0.0443671 0.0642021 -0.0799276 -0.0488371 -0.0555546 0.00565837 -0.06212 -0.0473422 0.0553145 -0.0696361 -0.0444726 0.0261325 -0.0208171 -0.0187579 0.0213811 -0.0680255 0.108464 0.0855459 0.0923559 0.0192905 -0.0894774 -0.000958049 0.0171318 -0.00421819
internal_weight=258665 152118 35436.6 23373.1 116682 106547 18920.8 12517.4 17728.9 7697.15 12063.5 6403.35 7164.56 4452.34 11853.8 10105.7 5496.82 5229 1958.46 3355.43 5611.86 1293.88 104828 9263.43 8733.09 1140.03 379.765 3749.3 1957.73 2405.52
internal_count=2656498 1699057 240748 159960 1458309 957441 136575 98910 136278 61478 80788 37665 41419 23385 87352 68608 35968 30641 9441 20736 37528 6446 1370957 103421 96484 10970 4623 21886 12180 14682
cat_boundaries=0 6 11 16 21 26 31 36
cat_threshold=201326592 175636480 4244136456 268435894 134217728 1 8433714 4 0 2048 2155872254 1075839232 805306368 3959422979 126 158982768 805306400 2147483648 16777220 685697536 2149713470 705953792 33832964 50593856 92438529 1080180862 4026860036 344064 33686722 1752973897 1073741825 0 0 0 0 3231168
is_linear=0
shrinkage=0.1


Tree=14
num_leaves=31
num_cat=5
split_feature=23 25 13 17 1 23 20 3 0 24 24 14 16 13 28 13 19 17 28 13 28 13 28 28 1 10 26 23 24 16
split_gain=196557 27200.3 4591.64 3233.75 2283.93 1976.74 1629.76 2791.41 1554.04 1356.67 1321.16 1063.8 1055.09 830.947 726.072 691.683 910.217 679.043 673.227 671.995 604.293 674.002 599.511 571.735 556.783 552.486 522.928 722.743 1477.94 552.806
threshold=0.055850000000000004 0.22719996744186258 27.500000000000004 10.500000000000002 1.0000460000000002 0.5070205000000001 1.0000000180025095e-35 29.000000000000004 0.41839850000000006 0.024500000000000004 0.18450000000000003 11.500000000000002 0.97543212893246867 2.5000000000000004 0 49.500000000000007 52.500000000000007 8.5000000000000018 1 3.5000000000000004 2 6.5000000000000009 3 4 1.0000000180025095e-35 7.4937210000000007 1.9122447188071525 0.032900000000000006 0.031500000000000007 2.7953743326497773
decision_type=2 2 2 2 2 2 2 2 2 2 2 2 2 2 9 2 2 2 9 2 9 2 9 9 2 2 2 2 2 2
left_child=1 3 4 18 11 6 -2 10 -4 25 -8 19 14 -14 -6 16 -10 -16 -1 -3 -13 -22 -23 -19 -9 -5 -11 28 -28 -30
right_child=5 2 8 9 12 -7 7 24 15 26 -12 20 13 -15 17 -17 -18 23 -20 -21 21 22 -24 -25 -26 -27 27 -29 29 -31
leaf_value=0.080114747729585531 -0.10377039095881002 -0.083259001502252683 0.095348759049446397 0.10697430079584383 -0.10457293959254702 -0.11481289950123906 -0.017816895064571583 -0.042966340654453157 0.027002780944744117 0.088379877673896656 -0.10007712803870922 -0.11302177208588289 -0.082759575433388521 0.064524541757357043 -0.0374378406900246 0.070495824690242223 -0.08529161183679633 -0.062415690593588938 -0.017103692166279234 0.0038044588736655888 -0.094185288641726594 0.024812846741384977 -0.052942980722208259 0.078647691620866156 0.16640772542498894 -0.27692316570862902 0.033207144663847138 0.073835355238630621 -0.074933921285860947 -0.3304068267974522
leaf_weight=955.86831815784797 12405.773974978667 1096.0897475739848 5049.3709594450911 98936.970143347367 786.52640580248681 77520.531184742431 3358.4020254289326 156.0603341683285 2167.553904835353 2314.0513307584606 4664.4401803602241 2227.8651725553282 422.38111178033205 4033.7425233550025 2089.3769465232308 1566.7616610909931 1080.9765652900401 360.65208297850745 2696.7121555858075 4618.7540325171822 2668.218999614106 1355.1870214627561 3652.8173172539682 1303.5448931556869 673.00992296999232 36.579546384804416 971.67444313476335 1389.4868779964745 162.75715825567022 177.32482422888279
leaf_count=7348 96630 6298 46853 1397284 7026 783087 20968 3190 16729 25236 27585 11878 3718 28992 17885 14535 4830 2352 18768 25361 17667 7031 19618 9975 25981 272 4000 4351 567 483
internal_value=0.000944613 0.0762501 -0.00104728 0.10101 -0.0241488 -0.107404 -0.0803813 -0.047594 0.0565943 0.104258 -0.0656491 -0.0472654 0.0159862 0.0505485 -0.0179406 0.0159447 -0.0103789 0.000512621 0.00852548 -0.0129057 -0.0670884 -0.0535272 -0.0319573 0.0481559 0.126992 0.10683 0.0535017 0.0236012 -0.0296254 -0.20872
internal_weight=240899 142121 34479.8 107641 24615.2 98778.2 21257.7 8851.91 9864.66 103989 8022.84 15618.9 8996.22 4456.12 4540.1 4815.29 3248.53 3753.57 3652.58 5714.84 9904.09 7676.22 5008 1664.2 829.07 98973.5 5015.29 2701.24 1311.76 340.082
internal_count=2656498 1699057 240748 1458309 157801 957441 174354 77724 82947 1432193 48553 87853 69948 32710 37238 36094 21559 30212 26116 31659 56194 44316 26649 12327 29171 1397556 34637 9401 5050 1050
cat_boundaries=0 5 10 15 20 26
cat_threshold=1073741824 38010944 4239401728 807190766 402653184 4587744 2222981152 2097408 1696762000 539099454 203423748 312320 3960490498 268435710 153108513 4896744 2239889408 16782340 541198336 2684364032 202440726 162562080 38426728 16 1191182337 1
is_linear=0
shrinkage=0.1


Tree=15
num_leaves=31
num_cat=5
split_feature=23 25 13 28 17 23 19 18 23 20 5 3 25 28 13 28 13 16 16 28 21 28 17 5 3 21 26 14 23 17
split_gain=173237 25219.7 4966.39 3722.07 2486.97 1962.86 1487.95 1390.71 1198.37 1071.34 1297.7 1158.4 1048.87 1047.67 1008.2 667.91 664.974 653.588 637.986 621.503 564.213 543.407 540.038 526.894 721.949 496.925 785.792 465.004 448.02 498.98
threshold=0.055850000000000004 0.20590597730457427 17.500000000000004 0 9.5000000000000018 0.40000200000000008 42.500000000000007 19.500000000000004 0.016350000000000003 1.0000000180025095e-35 3.5000000000000004 15.000000000000002 1.7136084638881137 1 27.500000000000004 2 6.5000000000000009 0.86019142600439158 0.44576663702710662 3 10.500000000000002 4 58.500000000000007 3.5000000000000004 13.000000000000002 2.5000000000000004 0.67608553083907152 5.5000000000000009 0.02145 15.500000000000002
decision_type=2 2 2 9 2 2 2 2 2 2 2 2 2 9 2 9 2 2 2 9 2 9 2 2 2 2 2 2 2 2
left_child=1 4 6 -4 21 9 12 14 -6 -2 -11 27 13 -3 17 -9 -15 -5 -16 -18 -13 -1 25 24 -10 26 -7 -12 -14 -30
right_child=5 2 3 7 8 22 -8 15 23 10 11 20 28 16 18 -17 19 -19 -20 -21 -22 -23 -24 -25 -26 -27 -28 -29 29 -31
leaf_value=0.066665074718913184 -0.096397040539279527 0.05976872952981982 0.096875398715322553 -0.044699705093247027 0.10647449050780894 0.08092646719216634 -0.097513312410340447 0.060470495188413034 -0.2186558884862343 -0.11066800232151937 0.021567143299740354 0.15257760995995689 0.057519231821705277 -0.074843073046636122 0.068206747245503394 -0.084229505165915819 -0.073335594550051258 0.086499509691049095 -0.032693206490005684 -0.0077924872886388974 -0.03235096244542069 -0.033295395336724383 0.17299639456256796 0.073877921525395018 0.034262506481192931 -0.11253612074421715 -0.11533756907166437 -0.056044793559286488 0.0018182562982090719 -0.21924596619805459
leaf_weight=807.978068233984 8021.591068358829 1089.8374565240085 7131.4787953980476 2358.8787209665306 86273.976544540186 343.76702389898912 2963.4187462913524 370.01850049275197 140.76829200361794 1973.3188643994281 1040.0659353973933 546.62566985089143 2093.981278424737 4101.6172096858345 3938.1164023855354 2105.9231770426027 1944.3503699889709 451.55483210283455 744.58589551977639 5595.5256914810343 235.6768218674415 1607.7735096348845 65.846310730892583 7284.963209217869 552.62208470185101 75761.026752050704 498.81985430398288 2988.776489927558 1215.0938275629542 110.47033041901886
leaf_count=5488 69716 4469 75845 12063 1350329 21803 22407 3908 458 10734 7103 16112 13263 31142 27969 14598 12867 2696 4135 36464 1384 10622 1116 60572 3307 805422 2694 21624 5792 400
internal_value=0.000906148 0.0738126 0.00263649 0.041787 0.100477 -0.105002 -0.0323897 0.00227369 0.103045 -0.0716589 -0.0424 -0.0143823 -0.0204353 -0.0336421 0.0237464 -0.062685 -0.0424062 -0.0235965 0.0521593 -0.0248095 0.0968958 0.000289451 -0.11144 0.0659504 -0.0173245 -0.111687 -0.0352628 -0.0360085 0.0287303 -0.0167563
internal_weight=224358 132883 36214.9 17100.6 96668.1 91475.5 19114.3 9969.08 94252.3 14806.1 6784.46 4811.14 16150.9 12731.3 7493.14 2475.94 11641.5 2810.43 4682.7 7539.88 782.302 2415.75 76669.5 7978.35 693.39 76603.6 842.587 4028.84 3419.55 1325.56
internal_count=2656502 1698794 268018 141214 1430776 957708 126804 65369 1414666 126673 56957 46223 104397 84942 46863 18506 80473 14759 32104 49331 17496 16110 831035 64337 3765 829919 24497 28727 19455 6192
cat_boundaries=0 5 10 15 20 25
cat_threshold=8389682 1073741824 4 10240 2155872254 851611824 2116896 16777216 676242176 2147483662 41070793 2415957508 266304 2233697281 8388608 202375172 4672 4239917056 1073742078 1158479904 4587616 2239758368 2097408 1159890944 543293758
is_linear=0
shrinkage=0.1


Tree=16
num_leaves=31
num_cat=4
split_feature=24 13 2 1 17 25 4 16 4 18 22 14 28 28 24 15 24 21 16 13 28 28 22 17 10 27 16 21 11 3
split_gain=131844 25524.7 15837.4 6389.08 5543.4 2745.43 2341.98 1893.8 2696.88 1449.17 1401.06 1015.91 1007 1004.99 921.475 904.202 985.112 1105.7 946.551 864.824 760.867 712.158 658.571 637.174 612.124 529.403 527.761 515.28 524.544 474.663
threshold=0.089430000000000009 26.500000000000004 1.0000000180025095e-35 1.0000000180025095e-35 7.5000000000000009 0.16034108359861901 16.500000000000004 0.015841164479149954 14.500000000000002 20.500000000000004 1.5000000000000002 5.5000000000000009 0 1 0.18450000000000003 76.500000000000014 0.033500000000000009 24.500000000000004 43.368006340827016 9.5000000000000018 2 3 1.5000000000000002 1.5000000000000002 1.0000000180025095e-35 0.042967397119134755 0.42252319033033581 10.500000000000002 8.0116045000000025 11.000000000000002
decision_type=2 2 2 2 2 2 2 2 2 2 2 2 9 9 2 2 2 2 2 2 9 9 2 2 2 2 2 2 10 2
left_child=1 3 -3 12 11 -4 9 8 22 26 -6 23 29 19 -9 -12 18 -18 21 -13 -11 -17 -2 -5 -16 -25 -7 28 -10 -1
right_child=7 2 5 4 10 6 -8 14 27 20 15 13 -14 -15 24 16 17 -19 -20 -21 -22 -23 -24 25 -26 -27 -28 -29 -30 -31
leaf_value=-0.12107198238773442 0.14427742065327989 -0.11518979194811632 0.10606514261662665 -0.057793597735687922 -0.018045480305894448 0.065013463405739796 0.099041264199098519 -0.056771135617192284 0.15532522798675041 -0.10220859791759085 0.082137808349047658 -0.08982330613958367 -0.099651102123281377 0.002147572570230908 0.25256067897840234 -0.12530720146964791 -0.21400206500604085 0.01877596836917628 -0.15294277657990493 -0.022637728314339415 0.010173733378206658 0.096499455184400396 -0.10284397354030531 0.010748518576040197 -0.10983969064817688 0.10082403658089811 -0.01292869810058264 0.39096291594018684 -0.083873241756508704 0.017884030036343639
leaf_weight=306.07532504851042 114.82447313727948 3627.303655789452 73592.564055472743 957.25116068300576 2164.5412328708662 4521.972047481624 7831.532092578007 3468.7301788211189 541.44272189956246 1125.0739669032353 10634.46451899376 4720.5949922583059 6882.2455472559186 3457.4854005777652 45.730862263211748 150.01042227368046 329.58628752082586 532.76965580880642 194.02307520582531 3225.6825351482257 1285.2414320789642 1726.900475561881 1589.3956660870078 2454.2192161033513 69973.648946702786 887.92892454863841 1074.9100500499871 74.816313591504013 109.65788957624704 1231.6205856539393
leaf_count=2394 1394 18977 1231735 6926 28239 32281 103015 29254 32125 8785 126458 38719 48181 26912 1070 1871 1013 2039 907 20297 12833 13770 12766 16310 819034 4325 7403 437 1360 5672
internal_value=0.000898656 0.0609493 0.0896278 -0.00601282 0.0147092 0.0979363 0.0601626 -0.104235 -0.0173732 0.0221292 0.0566617 -0.0273221 -0.08337 -0.0429387 -0.107107 0.0685806 0.0194184 -0.070335 0.0568084 -0.0624779 -0.0426858 0.0785611 -0.0861189 0.0140998 -0.109599 0.0347024 0.0500446 0.143916 0.114973 -0.00977209
internal_weight=208832 132914 93058.6 39855.4 31435.5 89431.3 15838.7 75918.2 2430.14 8007.2 15732.3 15703.2 8419.94 11403.8 73488.1 13567.8 2933.29 862.356 2070.93 7946.28 2410.32 1876.91 1704.22 4299.4 70019.4 3342.15 5596.88 725.917 651.101 1537.7
internal_count=2656502 1759062 1415029 344033 287786 1396052 164317 897440 48082 61302 174297 113489 56247 85928 849358 146058 19600 3052 16548 59016 21618 15641 14160 27561 820104 20635 39684 33922 33485 8066
cat_boundaries=0 5 10 16 21
cat_threshold=46315448 2239758368 364544 545490944 2684354560 1073744386 637796352 268534336 536870920 8253168 2097152 168034304 4277668352 1620050174 1207959552 1 1073807364 168034384 3432661546 536871150 167772160
is_linear=0
shrinkage=0.1


Tree=17
num_leaves=31
num_cat=5
split_feature=23 25 13 24 2 23 5 13 13 28 7 13 16 1 28 28 1 2 25 28 2 25 18 13 23 18 16 24 28 7
split_gain=134433 22233.5 3714.3 2952.71 2760.06 1688.19 1360.36 2230.59 1090.44 1172.32 1064.11 883.456 986.732 815.942 813.655 721.961 542.982 539.989 538.281 501.749 485.899 453.134 585.895 509.661 484.84 435.553 434.54 422.848 409.713 402.002
threshold=0.064150000000000013 0.20590597730457427 13.500000000000002 0.019500000000000003 0.028500000000000004 0.5070205000000001 3.5000000000000004 12.500000000000002 47.500000000000007 0 5664.1923110000007 3.5000000000000004 1.0718805222991719 4.0679060000000007 1 2 1.0000460000000002 1.0000000180025095e-35 1.2898780385065851 3 0.047500000000000007 0.14718746188774687 38.500000000000007 17.500000000000004 0.0099500000000000022 44.500000000000007 36.960738647669551 0.11535400000000003 4 2104.4146300000007
decision_type=2 2 2 2 2 2 2 2 2 9 2 2 2 2 9 9 2 2 2 9 2 2 2 2 2 2 2 2 9 2
left_child=1 3 11 17 26 6 -2 27 9 -6 13 -3 19 -9 -14 -11 20 -1 -16 -13 -5 -19 23 -23 -24 -7 -4 28 -8 -26
right_child=5 2 4 16 8 25 7 10 -10 15 -12 12 14 -15 18 -17 -18 21 -20 -21 -22 22 24 -25 29 -27 -28 -29 -30 -31
leaf_value=-0.27908298767143008 -0.10954109656092177 -0.081434572396740026 0.095166752068170102 0.058885479840029058 -0.058749386030233768 -0.10963185705004569 -0.086681108294189291 0.037611924623945962 0.063770926730878946 -0.030700066750643792 0.15891308319452294 0.0050440627087715711 0.075948594787561455 -0.095687559179868015 -0.03995077655654259 0.03149398418068846 0.069733438134005662 0.10611855514317883 0.03445032700377057 -0.067074369028783387 -0.0042616719920657532 -0.026848872146509307 0.096591066884939403 0.092986089939050054 -0.27370339097072671 0.10095979500741099 -0.1450087388346751 -0.090245569051381924 0.014161777160202374 0.015185778083753902
leaf_weight=35.930719217780279 6476.3535640771588 3383.0780004264834 5185.8971286550895 2068.5596547313035 3089.4797545107772 60284.457836575406 739.03955326167204 1516.882006182271 2772.1890149615319 2665.0848210888134 500.22125653812782 1225.8580019288063 1293.0184846384043 657.3789329153276 2813.148401908491 6167.7699161309747 4424.6864176781392 66948.501399887289 1484.9158317419578 4607.6055297232933 2962.9904408549182 380.53679530662157 129.67627463792661 5188.5746024205482 113.1132431124698 97.641068016797362 75.59092735921331 6156.7103089938773 869.6839295280962 83.179933170064572
leaf_count=114 48445 28404 66091 14428 19323 782123 6443 8470 24924 14359 11925 8618 7206 18809 17761 41207 52581 1259303 7699 35010 17528 5429 1959 79345 786 1085 900 68857 6570 800
internal_value=0.000885507 0.0684492 0.00138987 0.0967625 0.029546 -0.101466 -0.0735368 -0.0511934 0.00729036 -0.00584679 0.0275623 -0.0365551 -0.0232593 -0.00271609 0.00675978 0.0127137 0.0441835 0.103584 -0.0142112 -0.0520273 0.0217058 0.103777 0.0771668 0.0847944 -0.0530101 -0.10929 0.0916893 -0.0783176 -0.0326405 -0.151829
internal_weight=194398 117099 34763.6 82335.7 19956 77298.4 16916.3 10439.9 14694.5 11922.3 2674.48 14807.6 11424.5 2174.26 5591.08 8832.85 9456.24 72879.5 4298.06 5833.46 5031.55 72843.6 5895.08 5569.11 325.969 60382.1 5261.49 7765.43 1608.72 196.293
internal_count=2656502 1703775 271502 1432273 166804 952727 169519 121074 99813 74889 39204 104698 76294 27279 32666 55566 84537 1347736 25460 43628 31956 1347622 88319 84774 3545 783208 66991 81870 13013 1586
cat_boundaries=0 6 11 16 21 26
cat_threshold=671088640 175898688 4264567296 250 184549888 1 704774272 6307876 18878784 947030016 807404574 1141964804 53248 13255912 1486897925 1342212096 13546016 207136 50340868 67110913 2147497230 0 0 0 0 391040
is_linear=0
shrinkage=0.1


Tree=18
num_leaves=31
num_cat=3
split_feature=23 25 13 28 24 23 1 13 23 19 3 18 1 1 17 9 28 26 7 13 17 22 15 21 24 0 18 28 24 16
split_gain=118401 20578.1 3602.94 3118.03 2757.37 1711.35 1311.32 1968.6 1240.18 1194.46 1037.74 932.215 926.959 691.432 544.758 530.042 526.438 473.835 471.932 547.727 455.122 444.137 803.788 691.446 501.092 831.734 434.843 422.477 414.147 392.71
threshold=0.064150000000000013 0.19335809506763399 17.500000000000004 0 0.019500000000000003 0.5070205000000001 1.0000000180025095e-35 11.500000000000002 0.0090500000000000008 44.500000000000007 33.000000000000007 19.500000000000004 1.0000460000000002 4.0679060000000007 4.5000000000000009 12.500000000000002 1 1.9122447188071525 9116.2712705000013 50.500000000000007 10.500000000000002 1.5000000000000002 53.500000000000007 13.500000000000002 0.031500000000000007 0.041150000000000006 3.5000000000000004 2 0.11535400000000003 0.4706169899080524
decision_type=2 2 2 9 2 2 2 2 2 2 2 2 2 2 2 2 9 2 2 2 2 2 2 2 2 2 2 9 2 2
left_child=1 4 9 -4 20 6 -2 28 29 12 13 -10 15 -9 -6 -3 -14 -16 19 21 26 22 23 -19 -23 -26 -1 -17 -8 -5
right_child=5 2 3 8 14 -7 7 10 11 -11 -12 -13 16 -15 17 27 -18 18 -20 -21 -22 24 -24 -25 25 -27 -28 -29 -30 -31
leaf_value=-0.055418288231562043 -0.10769470351363331 0.016247591933338641 0.091311836997586382 0.076371938305167711 -0.074374145305077188 -0.10775212691180412 -0.030218765856456886 0.02626807354903643 0.0022658194326192148 -0.092108950706635662 0.14901501133030487 -0.078595928117657879 -0.052150148445910871 -0.094695658073834732 0.071965590379067565 -0.08069788234223596 0.030315514527143369 0.073567322811793665 -0.1253788279741701 0.093489698379653707 0.10380241938818796 0.07115488560192916 -0.30694367080988993 -0.18831562492709752 -0.14900515275968657 0.040721016639999948 0.093143632940560203 -0.030966815737215294 -0.089302413266426586 -0.011341525839759203
leaf_weight=351.10358473371593 5955.4072390834463 1767.2009652331853 6476.8507639471354 2282.8076984810896 377.58034351188144 55376.421463478036 1508.0176872989405 1721.9036023865394 5051.8356507688877 2429.9024972688967 519.45708307451741 1985.2293015199657 921.2511579396886 650.13065858456525 4195.1592519043979 2292.5389662458001 4581.4292986733362 313.1632357265803 199.62294415891301 1054.1891284696758 64946.682016098457 1262.9987569280574 113.14983226545155 147.46678445159569 345.80068698525429 691.49019660659178 446.51255581028386 6846.5495411234988 5584.6835143910803 657.04837900521306
leaf_count=4584 48445 10360 86656 23967 1917 783208 12609 8226 28679 20404 25915 14485 9084 6672 61482 14352 34518 1498 915 5123 1322617 6220 463 743 905 2267 4379 43607 67652 4550
internal_value=0.000872195 0.0660632 0.00317029 0.0373577 0.0958789 -0.0994401 -0.0705579 -0.0483978 0.00223218 -0.0266892 0.0211423 -0.020554 -0.0169966 -0.00691178 0.0429687 -0.0338781 0.0164626 0.0483003 0.0242378 0.0318708 0.10288 0.00924481 -0.0693901 -0.0104986 0.028881 -0.0226104 0.0277605 -0.0435715 -0.0767463 0.0567711
internal_weight=181054 109738 35292.6 16453.8 74444.9 71316 15939.6 9984.19 9976.92 18838.9 2891.49 7037.06 16409 2372.03 8700.62 10906.3 5502.68 8323.04 4127.88 3928.26 65744.3 2874.07 573.78 460.63 2300.29 1037.29 797.616 9139.09 7092.7 2939.86
internal_count=2656502 1703775 290662 158337 1413113 952727 169519 121074 71681 132325 40813 43164 111921 14898 81533 68319 43602 79616 18134 17219 1331580 12096 2704 2241 9392 3172 8963 57959 80261 28517
cat_boundaries=0 5 11 16
cat_threshold=8389651 1073741824 4 10240 2155872254 1275071498 637534208 3155755520 536870974 626688 1 204537860 16798210 3969386560 268451926 1074561536
is_linear=0
shrinkage=0.1


Tree=19
num_leaves=31
num_cat=5
split_feature=23 25 13 24 23 1 4 28 28 13 5 13 18 16 22 17 14 28 28 3 5 25 9 21 21 12 17 28 4 9
split_gain=104230 19297.6 3997.76 2272.03 1724.98 1452.6 1394.7 850.07 801.968 946.109 799.858 1427.09 700.413 817.174 652.588 631.62 571.268 545.068 525.65 497.322 477.845 474.628 468.611 463.408 451.452 586.536 438.325 431.097 409.603 407.545
threshold=0.064150000000000013 0.16998594557610561 32.500000000000007 0.019500000000000003 0.40000200000000008 1.0000460000000002 16.500000000000004 0 1 10.500000000000002 3.5000000000000004 11.500000000000002 21.500000000000004 0.44576663702710662 2.5000000000000004 8.5000000000000018 7.5000000000000009 2 3 15.000000000000002 2.0000000000000004 0.5396506544935632 26.500000000000004 41.500000000000007 2.5000000000000004 0.66695700000000013 4.5000000000000009 4 7.5000000000000009 24.500000000000004
decision_type=2 2 2 2 2 2 2 9 9 2 2 2 2 2 2 2 2 9 9 2 2 2 2 2 2 2 2 9 2 2
left_child=1 3 5 20 10 8 12 -7 -3 16 -2 -12 13 -4 18 27 -10 -17 -11 29 -1 -18 28 -16 25 -6 -5 -9 -14 -13
right_child=4 2 6 26 24 7 -8 15 9 14 11 19 22 -15 23 17 21 -19 -20 -21 -22 -23 -24 -25 -26 -27 -28 -29 -30 -31
leaf_value=-0.24654838701041895 -0.10551798194377156 -0.092548045940899659 0.062807177562087035 -0.075813287484492939 0.078571181397074141 -0.054438713643762349 0.095543771257710547 -0.054067213840846284 -0.0097734890772594694 0.026774575108266741 -0.070237971363771287 0.017883563593550599 -0.22386248424772931 -0.08335338372504271 0.03952892444321579 -0.022995227971445275 -0.027672110910273297 0.074995001126038324 -0.049025454556961848 0.09656870288212771 0.10323671737963802 -0.094130300766447295 -0.12851995397702329 -0.14039891037218435 -0.10580821856478076 -0.10982152915670705 0.049561517191190105 0.018958023524150713 0.013645260816225005 -0.117051513955389
leaf_weight=38.168791060197691 3021.5626680954929 1939.4682794319244 3332.6715914354863 289.08608546370397 306.44882762822897 1466.8367131437469 5178.9171485926181 1016.5154780455284 2271.1562952779241 1302.7872846570608 5984.8542962312786 1185.0002776323424 76.743024748783 431.22754036518063 3339.3916701731114 689.96646777114836 1656.7302611696055 3185.3876064949177 3029.4037318414539 667.16480698304645 58053.44360364008 3063.2717399768012 389.06237611878123 148.58459172584116 53974.999728514376 356.39975370302921 7286.3210129562895 3781.0240808494636 1099.1862416880338 274.91039366298355
leaf_count=114 25496 12391 29389 1544 22543 13365 83988 9116 12350 8908 70417 6717 483 2599 18782 4421 11111 33623 15296 17383 1299741 25390 2141 461 805807 2685 74055 32094 12413 1679
internal_value=0.000865233 0.063631 0.00629266 0.0962854 -0.0974897 -0.0141456 0.0585925 0.0157264 -0.0322278 -0.0242446 -0.0616042 -0.045236 0.02267 0.046044 -0.000363181 0.0276291 -0.0509886 0.0576816 -0.0262811 0.0251109 0.103003 -0.0708141 -0.0335393 0.0318261 -0.104801 -0.0227365 0.0447677 0.00340403 -0.00203191 -0.00758829
internal_weight=168837 103065 37398.3 65667 65771.3 26890.5 10507.8 10139.7 16750.8 14811.3 11133.5 8111.93 5328.89 3763.9 7820.17 8672.89 6991.16 3875.35 4332.19 2127.08 58091.6 4720 1564.99 3487.98 54637.8 662.849 7575.41 4797.54 1175.93 1459.91
internal_count=2656502 1703775 328321 1375454 952727 197308 131013 92619 104689 92298 121692 96196 47025 31988 43447 79254 48851 38044 24204 25779 1299855 36501 15037 19243 831035 25228 75599 41210 12896 8396
cat_boundaries=0 6 12 17 22 27
cat_threshold=1207960068 173015040 4229441024 536871166 218169344 1 67108868 269796352 2885831178 268435967 150995456 1 352321538 11272385 48251379 2551206400 1073741825 12628064 2755658252 111616 50331648 2151834960 18353418 872677896 98376 1107297280 545831040
is_linear=0
shrinkage=0.1


Tree=20
num_leaves=31
num_cat=6
split_feature=23 25 13 24 23 0 1 1 13 3 14 28 17 18 13 22 1 16 28 18 5 28 28 1 25 24 16 13 28 28
split_gain=91696.8 17958.7 3674.88 2100.49 1801.6 1460.68 1272.71 1245.6 1562.64 879.956 736.825 698.377 730.957 655.601 629.819 697.511 563.062 562.167 509.593 478.944 453.73 453.057 430.204 422.615 409.869 399.725 399.662 395.001 394.392 393.736
threshold=0.064150000000000013 0.16034108359861901 32.500000000000007 0.019500000000000003 0.5070205000000001 0.43199400000000004 1.0000460000000002 1.0000000180025095e-35 11.500000000000002 33.000000000000007 8.5000000000000018 0 8.5000000000000018 21.500000000000004 10.500000000000002 2.5000000000000004 4.0679060000000007 0.42252319033033581 1 44.500000000000007 2.0000000000000004 2 3 1.0000460000000002 0.5396506544935632 0.11535400000000003 2.3253454664109676 3.5000000000000004 4 5
decision_type=2 2 2 2 2 2 2 2 2 2 2 9 2 2 2 2 2 2 9 2 2 9 9 2 2 2 2 2 9 9
left_child=1 3 6 20 7 -4 10 -2 25 16 27 -8 18 17 24 28 -10 -7 -13 -6 -1 -17 -14 -5 29 -9 -20 -3 -16 -12
right_child=4 2 5 23 19 13 11 8 9 -11 14 12 22 -15 15 21 -18 -19 26 -21 -22 -23 -24 -25 -26 -27 -28 -29 -30 -31
leaf_value=-0.21684123517251508 -0.10423653409025063 -0.059038416971077805 0.089897667309566706 0.020232189336733843 -0.10550768017622048 0.062200365233889304 -0.057147231349128906 -0.022834734940734097 0.023488665075246357 0.14401568743562396 0.021923297517311299 -0.059026725220469534 -0.017885627121009811 -0.035678418468073896 0.015714612886924391 -0.058672798817509621 -0.089708305725101398 -0.043888923972485096 -0.0059791029130080962 0.11105234411506587 0.10278640822581293 0.040508821408703259 0.071236344368113186 0.069635687239263749 -0.090897856983201075 -0.083156354249139142 0.062242663729933617 0.016605829585358386 -0.062214827004980822 -0.074947069762151847
leaf_weight=43.553725123441836 5027.8419603450111 834.82537057362424 5918.6854448701852 3608.7808148693939 46368.620266966631 2622.6096025531192 1166.3414874064074 1415.3037420039518 1725.2545357727911 474.62181894946025 781.42160549886978 1140.3541459982725 647.78155401316349 1633.2608425359103 795.92965255953209 588.89663979645934 588.48624670422237 616.17743460125303 2571.8985701651472 101.58583538269158 52212.985321638029 1984.3629230841436 3324.5200122819078 3329.722975177684 3264.9973377178508 4921.8889673433669 1288.0139032969282 3964.2748667329288 3535.1217223062731 889.81937094261946
leaf_count=121 48380 5531 95025 25642 781720 29040 10420 12581 8178 25896 5137 10860 3919 16642 5286 3398 6652 4085 22008 1094 1283714 11610 38056 47041 28531 67695 10390 22792 18460 6065
internal_value=0.000915405 0.0613316 0.00725499 0.0956516 -0.0955173 0.0565211 -0.0125987 -0.0642724 -0.0422446 0.0201346 -0.0296155 0.0153288 0.0247914 0.0159642 -0.0430114 -0.0235049 -0.00532863 0.0420096 -0.000622369 -0.105032 0.102516 0.0177263 0.0568362 0.0439471 -0.0702849 -0.0696903 0.0167526 0.00343761 -0.0480005 -0.0299845
internal_weight=157388 96764.3 37569.3 59195 60623.6 10790.7 26778.6 14153.4 9125.56 2788.36 16639.6 10138.9 8972.57 4872.05 11840.5 6904.31 2313.74 3238.79 5000.27 46470.2 52256.5 2573.26 3972.3 6938.5 4936.24 6337.19 3859.91 4799.1 4331.05 1671.24
internal_count=2655969 1703773 347255 1356518 952196 144792 202463 169382 121002 40726 106810 95653 85233 49767 78487 38754 14830 33125 43258 782814 1283835 15008 41975 72683 39733 80276 32398 28323 23746 11202
cat_boundaries=0 6 11 16 21 26 31
cat_threshold=1207960064 441450560 4266664448 536871166 218103808 1 1051918 603984384 99400 1115685888 545896448 1277165568 1589252 2660909056 990 16828672 352321538 28114945 11027953 2554352128 1107296257 12759392 2755658252 103428 51380224 2153940288 12747280 75507840 303038464 539166720 807712128
is_linear=0
shrinkage=0.1


Tree=21
num_leaves=31
num_cat=5
split_feature=23 13 22 13 23 17 5 13 5 17 7 3 24 23 17 4 15 3 28 15 28 15 7 28 28 7 23 10 28 14
split_gain=80710.4 16277 2194.51 2105.6 1815.09 1662.07 1192.92 1365.7 1028.64 1020.16 928.342 1094.68 925.941 949.239 851.74 821.391 820.006 755.184 730.764 672.199 660.365 634.416 617.753 527.132 518.961 471.843 459.528 455.927 444.942 433.455
threshold=0.064150000000000013 27.500000000000004 2.5000000000000004 10.500000000000002 0.5070205000000001 31.500000000000004 3.5000000000000004 12.500000000000002 3.5000000000000004 13.500000000000002 390.97145300000005 9.0000000000000018 0.033500000000000009 0.036650000000000009 10.500000000000002 7.5000000000000009 57.500000000000007 35.000000000000007 0 79.500000000000014 1 24.500000000000004 1217.1339705000003 2 3 448.92961250000002 0.34402100000000008 0.77064900000000003 4 5.5000000000000009
decision_type=2 2 2 2 2 2 2 2 2 2 2 2 2 2 2 2 2 2 9 2 9 2 2 9 9 2 2 2 9 2
left_child=1 2 8 18 6 10 -2 27 -1 21 -3 -12 14 16 20 -7 -14 26 -4 25 -5 -10 -21 -11 -16 -13 -9 -8 -23 -29
right_child=4 5 3 12 -6 15 7 17 9 23 11 19 13 -15 24 -17 -18 -19 -20 22 -22 28 -24 -25 -26 -27 -28 29 -30 -31
leaf_value=-0.075759559280871747 -0.10266123779818037 0.093937567308706421 -0.06060684544691855 -0.034271087909124448 -0.10379336116121583 -0.020136717973050569 0.26872945397808823 0.027755141364980786 0.12556515499282048 -0.067064818474094831 -0.38362057750299772 -0.18921140309417492 0.014392036839865872 0.055315866724995472 -0.045580030725115919 0.099622362064883674 -0.15067771511838016 0.14209917157429663 0.0095088947274942996 -0.14695605060363345 0.060341319780261915 -0.059306615419173508 0.011672095394541388 0.054300503751248091 0.097641343098984659 0.05581741274567275 -0.075998509881153142 -0.023016708593862182 -0.012429385424991892 -0.082845950714562286
leaf_weight=3336.4642671673628 4615.6646619991261 4004.0259487870326 2700.3121182476871 1161.5525528701075 42525.01463196821 579.41247209335415 39.761786215995926 1456.9614611352372 251.75693796533142 407.15445957404614 61.27591507294801 78.738610930686264 616.40815684224458 1379.806530198264 264.18974664826339 47321.04585309804 586.73061987959591 436.064304445978 3289.5731740635683 319.9633653145188 1989.3566633035905 3954.1396323011886 1043.6706190488844 2571.3970963978891 5209.690457064733 5680.8427097680178 602.61319028746811 1649.7013741442461 4176.6461565253458 4561.8974042412556
leaf_count=16584 48380 74850 23305 9140 782814 5463 723 7557 1064 4507 525 457 3227 5802 3045 1226805 1759 25700 25055 1280 13931 33866 14605 40976 97645 63968 5866 18273 35914 62883
internal_value=0.00089329 0.0589924 0.00142232 0.0256707 -0.0936903 0.0900671 -0.0615334 -0.0398215 -0.0269505 -0.0126112 0.0553568 0.0338451 0.0512493 -0.00127388 0.0669772 0.0981733 -0.0661653 0.02271 -0.0221903 0.0374896 0.0255463 -0.030473 -0.0256289 0.0376506 0.090817 0.0524354 -0.0026244 -0.0647847 -0.0353193 -0.0669625
internal_weight=146872 90984.2 31895.2 17197.6 55887.7 59089 13362.7 8747 14697.6 11361.1 11188.5 7184.49 11207.7 2582.95 8624.79 47900.5 1203.14 2495.64 5989.89 7123.22 3150.91 8382.54 1363.63 2978.55 5473.88 5759.58 2059.57 6251.36 8130.79 6211.6
internal_count=2655969 1703773 315820 182909 952196 1387953 169382 121002 132911 116327 155685 80835 134549 10788 123761 1232268 4986 39123 48360 80310 23071 70844 15885 45483 100690 64425 13423 81879 69780 81156
cat_boundaries=0 5 10 16 21 26
cat_threshold=1140851464 16777224 805339650 3163166 13627920 673222660 38158402 35258432 8389126 1075692416 1073807360 2315518016 3169845824 1879048424 1325400066 1 1207959556 405798976 3424141848 402654182 452984833 135331842 541134848 1345855560 1610645518 4034080
is_linear=0
shrinkage=0.1


Tree=22
num_leaves=31
num_cat=2
split_feature=23 25 13 24 23 28 5 13 13 2 28 23 25 3 13 26 18 25 19 23 18 22 16 0 15 24 2 23 21 17
split_gain=70958.9 15825.3 2898.5 1890.13 1828.44 1447.16 1142.87 1186.03 1087.83 1165.62 1184.28 905.258 693.791 652.748 643.152 749.404 620.092 522.564 491.177 620.196 465.154 446.25 426.165 419.999 399.749 397.28 388.759 363.748 364.231 359.663
threshold=0.064150000000000013 0.14718746188774687 34.500000000000007 0.020500000000000004 0.5070205000000001 0 3.5000000000000004 11.500000000000002 3.5000000000000004 0.024500000000000004 1 0.0090500000000000008 5.7684574144266456 33.000000000000007 17.500000000000004 2.0464750792288453 21.500000000000004 0.87487685111495517 35.500000000000007 0.011250000000000001 44.500000000000007 4.5000000000000009 0.42252319033033581 0.015650000000000001 79.500000000000014 0.11535400000000003 1.0000000180025095e-35 0.34402100000000008 3.5000000000000004 54.500000000000007
decision_type=2 2 2 2 2 9 2 2 2 2 9 2 2 2 2 2 2 2 2 2 2 2 2 2 2 2 2 2 2 2
left_child=1 3 8 26 6 -4 -2 25 -3 14 -11 -7 18 27 15 17 22 23 19 -12 -6 -21 -13 -10 -5 -8 -1 28 -9 -26
right_child=4 2 5 24 20 11 7 13 9 10 12 16 -14 -15 -16 -17 -18 -19 -20 21 -22 -23 -24 -25 29 -27 -28 -29 -30 -31
leaf_value=-0.1880043583933248 -0.10113626053033725 -0.067991467552470375 0.099387591970578074 0.046362478878635899 -0.10312675786927145 0.075298664965145146 -0.015817555642084064 -0.13646295202028746 -0.095142017727499861 0.040347727054155381 0.028647019769089579 0.044331471276242013 0.065861695894471203 0.13041964485580959 0.099813388842243778 0.1020493057507913 -0.057490033691456659 0.0715216617456082 -0.059667298136480709 -0.036438049139915551 0.11034714503971806 0.031724839996884774 -0.065858950848109624 0.025489675363128624 -0.098201293016467017 -0.077884993635884803 0.10133427607200361 -0.070460416107373483 0.034049581767501606 0.10693871910193359
leaf_weight=45.609376320731826 4236.2290140031291 2850.3867893203278 4055.8651371092742 4832.00510150833 38813.542433105598 2069.319049224378 1351.1191214921828 135.49972743308695 822.26062356686202 3523.2671932035264 2289.079008279823 1976.5327993841411 827.86855940953319 427.74925499568872 1461.3142366582883 713.61178333312273 1479.4833909691761 459.53868970172516 3743.7686098920512 8881.390824914808 101.57320999408694 1076.1424090528726 425.79917814470309 443.8811810211439 361.64710309063958 4363.3287444055977 43302.391766577224 604.90833131649811 1524.442288813942 110.92047354578972
leaf_count=121 48380 28418 92392 53594 781720 31886 12581 1129 10527 24585 23180 18151 4335 25896 24723 2257 13743 9428 30811 46481 1094 6255 2321 6718 3646 67695 1268864 6217 7484 1337
internal_value=0.000876465 0.0566178 0.00742223 0.0941304 -0.091832 0.0534106 -0.0587857 -0.0374361 -0.00956557 -0.00269334 -0.012296 0.0218609 -0.0233362 0.0172774 0.0473743 0.0159314 -0.00658147 -0.0197189 -0.0279726 -0.0182796 -0.102567 -0.029069 0.0247816 -0.0528645 0.0377766 -0.0632152 0.101026 -0.0041393 0.020057 -0.0499269
internal_weight=137310 85752.1 37099.5 48652.6 51558.4 10007 12643.3 8407.05 27092.5 24242.1 20341.5 5951.13 16818.2 2692.6 3900.61 2439.29 3881.82 1725.68 15990.4 12246.6 38915.1 9957.53 2402.33 1266.14 5304.57 5714.45 43348 2264.85 1659.94 472.568
internal_count=2655969 1703773 376211 1327562 952196 158493 169382 121002 217718 189300 135647 66101 111062 40726 53653 28930 34215 26673 106727 75916 782814 52736 20472 17245 58577 80276 1268985 14830 8613 4983
cat_boundaries=0 5 10
cat_threshold=16779280 8321 16777233 8192 2222980090 46281192 2155872548 4100 537110528 2684355870
is_linear=0
shrinkage=0.1


Tree=23
num_leaves=31
num_cat=5
split_feature=23 25 13 28 23 24 23 5 13 13 16 28 7 16 13 28 13 21 28 28 9 2 16 25 24 16 22 19 1 12
split_gain=62380.6 14713.5 2608.86 1889.88 1840.6 1791.24 1196.46 1131.8 1077.35 901.283 1078.52 710.903 703.419 683.946 667.974 657.223 702.876 705.63 861.704 565.446 476.333 437.971 528.584 435.733 430.525 409.077 393.963 564.005 382.194 479.709
threshold=0.064150000000000013 0.14308817267090504 27.500000000000004 0 0.51867150000000006 0.019500000000000003 0.0090500000000000008 3.5000000000000004 8.5000000000000018 2.5000000000000004 0.97543212893246867 1 7640.5890555000015 0.15534005010733343 10.500000000000002 2 17.500000000000004 41.500000000000007 3 4 28.500000000000004 0.040500000000000008 10.600455793097433 0.63862397474446519 0.11535400000000003 0.4706169899080524 1.5000000000000002 17.500000000000004 1.0000460000000002 2.1906770000000004
decision_type=2 2 2 9 2 2 2 2 2 2 2 9 2 2 2 9 2 2 9 9 2 2 2 2 2 2 2 2 2 2
left_child=1 5 9 -4 7 -1 25 -2 24 -3 11 -11 26 20 -13 -12 17 21 -19 -16 -8 -17 -23 -14 -9 -5 27 -10 29 -7
right_child=4 2 3 6 -6 28 13 8 12 10 15 14 23 -15 19 16 -18 18 -20 -21 -22 22 -24 -25 -26 -27 -28 -29 -30 -31
leaf_value=0.10072257033957344 -0.099727105982868797 -0.080570073495142364 0.093732118714792492 0.085377057621278049 -0.10160466915447622 0.026471898963796332 -0.032754893006505519 -0.007433086697712487 -0.02165143925517804 -0.090686603760836981 0.074370452173346521 -0.053450890795469809 0.17521789357162817 0.014890885560014489 -0.055872281758896615 0.041093086514580955 0.082699716385297287 0.066214895634955667 -0.16096498313792779 0.014603346506453913 -0.15040047317007185 -0.034043377992794908 0.039143968615598164 -0.088017210873956614 -0.081623032771029225 -0.072626867861020086 -0.027651433228932577 0.17276721084906965 0.067824442438499707 -0.13044343549435966
leaf_weight=38690.880803675747 4060.6072668470024 1758.5235996883384 4805.1145039319244 2151.1033004786445 35328.394513343337 2736.8628030213999 1509.5030589543562 989.33972105837574 344.57566148466503 1510.0840963463338 1672.2817140683021 3453.8078559070973 347.90608744347412 3330.4555790434047 1417.9310454886488 2347.1440861915253 1056.2694917641384 234.20611806030263 548.38994302979756 5589.2233678650437 445.1429737306371 3253.2043358603096 1415.3817934521721 76.058708904158607 3738.3967222411716 176.61546071435305 2410.0142180092826 261.91716020391686 2617.6611978701935 208.76284352689981
leaf_count=1250973 50731 20341 113267 34275 778152 21898 15613 9490 2375 11767 11560 30583 11606 25190 8253 21084 14291 1332 2595 43432 2478 18057 10684 791 62562 1160 22375 14114 44206 734
internal_value=0.000864432 0.0542782 0.00743931 0.0447137 -0.0900295 0.0930935 0.0136247 -0.0565838 -0.0351266 -0.0116442 -0.0062533 -0.0267841 0.00744604 -0.0126687 -0.0174483 0.0170944 0.00617907 -0.00418686 -0.0941887 0.000277443 -0.0596102 0.00586472 -0.0118514 0.127898 -0.0661027 0.0733625 -0.00952003 0.0624555 0.0400273 0.0153105
internal_weight=128486 80928.5 36674.4 12417.9 47557.2 44254.2 7612.82 12228.8 8168.21 24256.4 22497.9 11971 3440.47 5285.1 10461 10526.9 8854.6 7798.33 782.596 7007.15 1954.65 7015.73 4668.59 423.965 4727.74 2327.72 3016.51 606.493 5563.29 2945.63
internal_count=2655969 1703773 385962 191983 952196 1317811 78716 174044 123313 193979 173638 94035 51261 43281 82268 79603 68043 53752 3927 51685 18091 49825 28741 12397 72052 35435 38864 16489 66838 22632
cat_boundaries=0 5 10 15 20 26
cat_threshold=2064 9 17 10240 2222981118 1207959556 2359296 2891983360 1879998716 1560281088 2181169280 2380324 6295552 947822848 2147484702 0 0 0 16384 274874912 85000208 168874049 1385316456 9455619 33554433 1
is_linear=0
shrinkage=0.1


Tree=24
num_leaves=31
num_cat=3
split_feature=23 17 13 5 20 7 2 24 16 14 15 4 22 13 16 13 24 22 28 28 12 17 16 15 17 10 28 23 17 19
split_gain=54801.2 13304.2 2089.41 1889.23 2734.15 2876.59 1454.06 1288.34 1088.54 905.038 846.026 830.577 721.311 869.63 719.476 729.571 618.363 665.341 614.915 538.278 555.665 508.404 497.891 498.899 481.011 456.603 428.23 406.324 424.443 505.661
threshold=0.064150000000000013 29.500000000000004 10.500000000000002 3.5000000000000004 1.0000000180025095e-35 5664.1923110000007 0.031500000000000007 4.3555905000000008 39.963227418086497 3.5000000000000004 75.500000000000014 7.5000000000000009 3.5000000000000004 27.500000000000004 12.520679511601161 58.500000000000007 0.18450000000000003 1.5000000000000002 0 1 2.2507710000000007 8.5000000000000018 0.44576663702710662 61.500000000000007 7.5000000000000009 1.0000000180025095e-35 2 0.009300000000000001 48.500000000000007 55.500000000000007
decision_type=2 2 2 2 2 2 2 2 2 2 2 2 2 2 2 2 2 2 9 9 2 2 2 2 2 2 9 2 2 2
left_child=1 2 9 -2 25 16 8 -7 21 -1 12 -3 13 19 15 -12 -6 24 -11 -8 -21 22 -4 -24 -18 -5 -10 -13 29 -29
right_child=3 11 6 4 5 7 10 -9 26 18 14 27 -14 -15 -16 -17 17 -19 -20 20 -22 -23 23 -25 -26 -27 -28 28 -30 -31
leaf_value=0.034151175133592913 -0.10430276641439405 -0.022868378234730161 0.086593525789203873 0.30118902829417815 0.012974905206038901 0.15068209912809005 0.042571032827215444 0.58450178206847858 0.054470325133209686 -0.074243928340803567 -0.076439520263332672 0.10238721358205737 0.066462557401462091 0.045321334076997039 0.041493530535075741 0.053438868674259232 -0.095794021583382238 -0.081326240319102128 -0.019420642431519419 -0.0049876000364710675 -0.073096172092362785 0.087234018161074317 -0.059021202028454615 0.10087516403439362 0.17157286505750927 -0.089473011777664688 -0.17648965432647484 0.07307117470696016 0.098070148859738304 -0.0090517008549600118
leaf_weight=1909.838518693794 27398.570643377032 601.64628697568696 771.36664083771893 29.048324357718229 2076.350578595192 487.2277975695938 1694.7311940759209 78.942605500667469 114.80263482221025 3480.5214674776867 2536.6296470102843 26233.26962071416 2873.7031616312815 4808.1635647349249 1053.173413483174 520.62234607031951 102.30301099087183 2100.4744951078092 5002.7998363998831 5369.8219870941557 1540.8704037390307 5195.4426893092113 784.46749068882627 258.66308661883795 192.72223107387754 11427.318543311962 246.3736165301215 4516.4463470071223 6009.138135075732 898.73565533719284
leaf_count=14134 532941 5895 14746 554 16565 20993 15638 476 2639 33526 27357 960719 30506 61092 6317 5314 1244 37205 42890 52919 4394 123489 6911 1656 15030 327188 4792 103456 173239 12144
internal_value=0.00084686 0.0519945 0.0102166 -0.0882045 -0.0614591 -6.27386e-05 0.0245314 0.212095 0.0625942 -0.028029 0.0107743 0.0936648 0.0210053 0.0112624 -0.0297607 -0.0543122 -0.0269649 -0.0615745 -0.0420299 -0.00777066 -0.0201529 0.0713204 0.0257319 -0.0193134 0.0788503 -0.0884563 -0.106499 0.0955272 0.0797672 0.0594424
internal_weight=120314 76421.2 38162 43893 16494.4 5038.02 27768.8 566.17 7371.12 10393.2 20397.7 38259.2 16287.3 13413.6 4110.43 3057.25 4471.85 2395.5 8483.32 8605.42 6910.69 7009.94 1814.5 1043.13 295.025 11456.4 361.176 37657.6 11424.3 5415.18
internal_count=2655969 1703773 448320 952196 419255 91513 357770 21469 154233 90550 203537 1255453 164549 134043 38988 32671 70044 53479 76416 72951 57313 146802 23313 8567 16274 327742 7431 1249558 288839 115600
cat_boundaries=0 5 10 15
cat_threshold=1073742080 285212672 3959488515 1048702 142172785 46305696 629148944 17072132 88082432 2686453016 0 0 0 0 6439984
is_linear=0
shrinkage=0.1


Tree=25
num_leaves=31
num_cat=2
split_feature=23 25 2 1 25 7 24 13 13 19 28 7 1 9 26 7 16 23 24 22 27 23 2 28 26 13 4 18 2 11
split_gain=48022.4 12847.4 2251.72 1907.14 2558.12 2341.03 1692.22 1628.56 909.426 1340.04 746.148 707.288 1141.68 671.14 539.674 535.932 1230.55 501.132 476.358 673.71 437.036 423.932 464.892 408.345 405.831 467.191 514.279 445.069 391.021 379.382
threshold=0.064150000000000013 0.13499013265336574 0.024500000000000004 1.0000000180025095e-35 0.63862397474446519 5664.1923110000007 0.019500000000000003 17.500000000000004 47.500000000000007 50.500000000000007 0 9116.2712705000013 3.5978300000000005 32.500000000000007 2.027533781414387 1360.8729745000003 0.043399092754736961 0.015100000000000001 0.18450000000000003 1.5000000000000002 0.12891171258109108 0.42328200000000005 2.6798510000000006 1 1.9325504557213729 50.500000000000007 14.500000000000002 4.5000000000000009 1.0000000180025095e-35 12.464732000000001
decision_type=2 2 2 2 2 2 2 2 2 2 9 2 2 2 2 2 2 2 2 2 2 2 2 9 2 2 2 2 2 10
left_child=1 6 7 -2 5 18 28 14 9 10 20 15 -13 29 -3 16 -10 -12 -5 -20 -4 22 -6 -19 27 26 -26 -8 -1 -7
right_child=3 2 8 4 21 13 24 -9 11 -11 17 12 -14 -15 -16 -17 -18 23 19 -21 -22 -23 -24 -25 25 -27 -28 -29 -30 -31
leaf_value=-0.19050083934574516 -0.10359711776031993 -0.029429808888730494 -0.039690312628494762 0.01272046774891065 -0.060421257602538928 0.19457989942472151 -0.0079899364982348557 0.097508926819729058 -0.27834854323259056 -0.073760152871705037 0.026950750983876059 0.041644801040776176 -0.51970622962841551 0.45273463352802401 0.062050432854745464 0.081068633266714415 0.034832579600679349 -0.067244892359387118 0.098580953889007061 -0.076379245746225663 0.023165941366969676 -0.098867110168284478 0.28703058747158727 0.00044105423097439068 -0.06094199421066681 0.080229535183882525 0.048475289601158045 0.08990151688825232 0.099870957405159777 -0.0061515974144245606
leaf_weight=45.561171386409114 24958.596716631146 1985.815081168812 6367.838947943017 1889.0790916547003 3442.9040797676821 384.79026223839725 621.60162140601778 4157.0068242957186 141.23235203674085 3112.8286863706453 7795.0696597565984 97.111086010697363 56.665075703309412 82.185649156570435 953.77761130034924 2171.8189569875294 1063.0008117846628 1054.4293258187136 248.06469041291302 1898.2772902899137 1337.9800285914598 7434.4248079101535 37.971633029959321 5462.3273105097978 1106.4973961978676 650.97336503863335 700.82548234266642 1834.2832381707412 31769.913825856962 124.47469570797506
leaf_count=120 533062 33807 54858 14742 57698 20142 7713 120611 910 21719 78727 1340 385 248 3191 29941 15463 5436 16065 35153 6993 273347 854 32473 5704 4532 3759 42258 1234851 1144
internal_value=0.000744287 0.0494757 0.00680666 -0.0864721 -0.0589668 0.00334636 0.0910133 0.0572328 -0.00568095 -0.0123574 -0.0036734 0.0418418 -0.167229 0.188971 0.000262796 0.0514115 -0.00209775 0.009836 -0.0238998 -0.0561216 -0.0287376 -0.0853786 -0.0565497 -0.0106219 0.0363884 0.00765894 -0.0185099 0.0651313 0.0994492 0.145601
internal_weight=112987 72486.6 35756.9 40500.8 15542.2 4626.87 36729.7 7096.6 28660.3 25130.5 22017.6 3529.83 153.776 591.451 2939.59 3376.05 1204.23 14311.8 4035.42 2146.34 7705.82 10915.3 3480.88 6516.76 4914.18 2458.3 1807.32 2455.88 31815.5 509.265
internal_count=2657246 1704791 405854 952455 419393 87494 1298937 157609 248245 200206 178487 48039 1725 21534 36998 46314 16373 116636 65960 51218 61851 331899 58552 37909 63966 13995 9463 49971 1234971 21286
cat_boundaries=0 6 11
cat_threshold=1275068416 0 2382373408 1073742045 1264378464 1 3473924 588251776 1891107986 881868834 268435456
is_linear=0
shrinkage=0.1


Tree=26
num_leaves=31
num_cat=4
split_feature=23 25 13 23 24 1 28 23 14 1 13 28 1 23 28 16 25 3 7 21 28 13 7 22 12 16 16 12 5 13
split_gain=42133.4 11955.2 2104.45 1911.51 1498.87 1043.61 815.256 639.057 607.528 588.719 734.647 579.742 598.139 538.028 522.838 507.087 474.708 2567.36 1331.2 983.307 456.911 484.867 430.044 397.52 367.07 344.71 343.905 343.734 338.264 329.304
threshold=0.064150000000000013 0.12802050835586601 43.500000000000007 0.40000200000000008 0.019500000000000003 1.0000460000000002 0 0.0090500000000000008 8.5000000000000018 1.0000000180025095e-35 3.5000000000000004 1 4.4903275000000011 0.009300000000000001 2 0.094222476148763071 0.63862397474446519 31.000000000000004 5664.1923110000007 10.500000000000002 3 5.5000000000000009 868.24110350000012 1.5000000000000002 2.9010300000000004 0.44576663702710662 0.42252319033033581 2.1731225000000003 2.0000000000000004 24.500000000000004
decision_type=2 2 2 2 2 2 9 2 2 2 2 9 2 2 9 2 2 2 2 2 9 2 2 2 2 2 2 2 2 2
left_child=1 4 5 9 28 8 -4 -7 -3 -2 -11 12 -9 25 -12 22 17 -5 23 -20 -10 -22 -15 -19 29 -8 -17 -14 -1 -6
right_child=3 2 6 16 24 7 13 11 20 10 14 -13 27 15 -16 26 -18 18 19 -21 21 -23 -24 -25 -26 -27 -28 -29 -30 -31
leaf_value=-0.16755057317478417 -0.093804540860728924 0.0093890976955701769 0.096331810140853277 -0.098207879514567997 0.018764958856146555 0.070522048316989508 0.088051884116503679 0.013881851211540855 -0.080781234387455061 -0.072278969768774001 0.061808301439482086 0.018985111015900918 -0.054621756464670761 -0.22085641038192791 -0.021816676418180261 0.044857921619275209 -0.10231428350750996 0.1481317980842565 0.13277482932120935 0.495321523313483 -0.071831246548586122 -0.014914210346499141 -0.032512247477005742 -0.082147704979899761 -0.11240149622451837 -0.080200692293439596 -0.089517514320193697 -0.18833740987792577 0.099387145300468771 0.074607075263937492
